0,1,2,3,4,5,6,7,8,9,10,11,12,13,14,15,16,17,18,19,20,21,22,23,24,25,26,27,28,29,30,31,32,33,34,35,36,37,38,39,40,41,42,43,44,45,46,47,48,49,50,51,52,53,54,55,56,57,58,59,60,61,62,63,64,65,66,67,68,69,70,71,72,73,74,75,76,77,78,79,80,81,82,83,84,85,86,87,88,89,90,91,92,93,94,95,96
9.38163462344788e-24,0.01090838705791986,-2.8222037344682975e-24,-3.923974763742476e-25,0.027481817216347532,5.324319731798048e-24,2.5805557887354613e-23,1.3103088405525327e-23,0.030651128201430344,1.9808690160248878e-23,2.0924839172554263e-23,-1.8335100106711557e-24,-5.768575150239861e-24,-5.187979200856263e-24,-9.48033206149163e-24,0.04714835995883749,0.015570527090381031,-7.431879643171824e-24,7.977635734289682e-24,0.0018156568246210864,2.947169847424647e-23,-1.2395719462034354e-23,0.04872761731519671,1.0175756373001223e-23,1.09072654695378e-23,-1.36096164861451e-24,-9.739355399684781e-25,1.9625805034552702e-23,2.1030220316818595e-24,0.05834672136726824,2.7137455691455987e-23,-1.655924219968177e-23,-1.2024716687795617e-23,0.03606877535942001,0.005122358761136402,7.745243973234731e-24,-2.0319068306366238e-23,1.562929871128415e-23,1.7557315407636283e-23,-1.1837057699952299e-23,2.6866803767334e-24,0.07882703748466988,-2.1698780098449765e-24,-1.3952567907479565e-23,0.04842088633076196,1.8297614743094477e-23,0.047578016539382505,2.7233964015956216e-23,1.545705734342099e-23,0.07473481082330528,-6.875534338865082e-24,-7.92784749702575e-25,0.057383302282597796,4.6447499188356036e-24,0.045763271500468265,9.087132781589787e-24,8.524847614053383e-24,2.023897935159732e-23,2.173776949433696e-23,0.01157641769224053,-2.0504210966060732e-23,1.5811581021566762e-23,-1.5171262724610186e-24,0.004883127143854891,0.021569202712831286,-2.2872161409591195e-24,0.015261116934245271,0.039449256048368936,-2.0362804932239568e-24,3.262331971164468e-24,6.012049000205602e-24,-4.477827818488943e-25,0.012864196903915819,-6.088397135082248e-24,0.019256956942912264,5.303226363002845e-24,0.0044340861556769395,2.1261423874202688e-24,-6.959608701007905e-24,-1.5628318362155083e-23,1.0636155082041823e-23,-5.739534876701832e-24,-2.1826881523490433e-23,-3.552990392402322e-24,5.936314744617226e-24,0.017222007110261978,1.1583833770431283e-23,-1.1374774380059426e-23,0.010503540397572593,1.478610391643621e-23,0.11185483593490998,1.1065219074446844e-23,-9.520447885661067e-24,1.3197872594160026e-24,0.0942454231044085,6.733998871862744e-24,0.002331158805056549
9.38163462344788e-24,0.01090838705791986,-2.8222037344682975e-24,-3.923974763742476e-25,0.027481817216347532,5.324319731798048e-24,2.5805557887354613e-23,1.3103088405525327e-23,0.030651128201430344,1.9808690160248878e-23,2.0924839172554263e-23,-1.8335100106711557e-24,-5.768575150239861e-24,-5.187979200856263e-24,-9.48033206149163e-24,0.04714835995883749,0.015570527090381031,-7.431879643171824e-24,7.977635734289682e-24,0.0018156568246210864,2.947169847424647e-23,-1.2395719462034354e-23,0.04872761731519671,1.0175756373001223e-23,1.09072654695378e-23,-1.36096164861451e-24,-9.739355399684781e-25,1.9625805034552702e-23,2.1030220316818595e-24,0.05834672136726824,2.7137455691455987e-23,-1.655924219968177e-23,-1.2024716687795617e-23,0.03606877535942001,0.005122358761136402,7.745243973234731e-24,-2.0319068306366238e-23,1.562929871128415e-23,1.7557315407636283e-23,-1.1837057699952299e-23,2.6866803767334e-24,0.07882703748466988,-2.1698780098449765e-24,-1.3952567907479565e-23,0.04842088633076196,1.8297614743094477e-23,0.047578016539382505,2.7233964015956216e-23,1.545705734342099e-23,0.07473481082330528,-6.875534338865082e-24,-7.92784749702575e-25,0.057383302282597796,4.6447499188356036e-24,0.045763271500468265,9.087132781589787e-24,8.524847614053383e-24,2.023897935159732e-23,2.173776949433696e-23,0.01157641769224053,-2.0504210966060732e-23,1.5811581021566762e-23,-1.5171262724610186e-24,0.004883127143854891,0.021569202712831286,-2.2872161409591195e-24,0.015261116934245271,0.039449256048368936,-2.0362804932239568e-24,3.262331971164468e-24,6.012049000205602e-24,-4.477827818488943e-25,0.012864196903915819,-6.088397135082248e-24,0.019256956942912264,5.303226363002845e-24,0.0044340861556769395,2.1261423874202688e-24,-6.959608701007905e-24,-1.5628318362155083e-23,1.0636155082041823e-23,-5.739534876701832e-24,-2.1826881523490433e-23,-3.552990392402322e-24,5.936314744617226e-24,0.017222007110261978,1.1583833770431283e-23,-1.1374774380059426e-23,0.010503540397572593,1.478610391643621e-23,0.11185483593490998,1.1065219074446844e-23,-9.520447885661067e-24,1.3197872594160026e-24,0.0942454231044085,6.733998871862744e-24,0.002331158805056549
9.38163462344788e-24,0.01090838705791986,-2.8222037344682975e-24,-3.923974763742476e-25,0.027481817216347532,5.324319731798048e-24,2.5805557887354613e-23,1.3103088405525327e-23,0.030651128201430344,1.9808690160248878e-23,2.0924839172554263e-23,-1.8335100106711557e-24,-5.768575150239861e-24,-5.187979200856263e-24,-9.48033206149163e-24,0.04714835995883749,0.015570527090381031,-7.431879643171824e-24,7.977635734289682e-24,0.0018156568246210864,2.947169847424647e-23,-1.2395719462034354e-23,0.04872761731519671,1.0175756373001223e-23,1.09072654695378e-23,-1.36096164861451e-24,-9.739355399684781e-25,1.9625805034552702e-23,2.1030220316818595e-24,0.05834672136726824,2.7137455691455987e-23,-1.655924219968177e-23,-1.2024716687795617e-23,0.03606877535942001,0.005122358761136402,7.745243973234731e-24,-2.0319068306366238e-23,1.562929871128415e-23,1.7557315407636283e-23,-1.1837057699952299e-23,2.6866803767334e-24,0.07882703748466988,-2.1698780098449765e-24,-1.3952567907479565e-23,0.04842088633076196,1.8297614743094477e-23,0.047578016539382505,2.7233964015956216e-23,1.545705734342099e-23,0.07473481082330528,-6.875534338865082e-24,-7.92784749702575e-25,0.057383302282597796,4.6447499188356036e-24,0.045763271500468265,9.087132781589787e-24,8.524847614053383e-24,2.023897935159732e-23,2.173776949433696e-23,0.01157641769224053,-2.0504210966060732e-23,1.5811581021566762e-23,-1.5171262724610186e-24,0.004883127143854891,0.021569202712831286,-2.2872161409591195e-24,0.015261116934245271,0.039449256048368936,-2.0362804932239568e-24,3.262331971164468e-24,6.012049000205602e-24,-4.477827818488943e-25,0.012864196903915819,-6.088397135082248e-24,0.019256956942912264,5.303226363002845e-24,0.0044340861556769395,2.1261423874202688e-24,-6.959608701007905e-24,-1.5628318362155083e-23,1.0636155082041823e-23,-5.739534876701832e-24,-2.1826881523490433e-23,-3.552990392402322e-24,5.936314744617226e-24,0.017222007110261978,1.1583833770431283e-23,-1.1374774380059426e-23,0.010503540397572593,1.478610391643621e-23,0.11185483593490998,1.1065219074446844e-23,-9.520447885661067e-24,1.3197872594160026e-24,0.0942454231044085,6.733998871862744e-24,0.002331158805056549
9.38163462344788e-24,0.01090838705791986,-2.8222037344682975e-24,-3.923974763742476e-25,0.027481817216347532,5.324319731798048e-24,2.5805557887354613e-23,1.3103088405525327e-23,0.030651128201430344,1.9808690160248878e-23,2.0924839172554263e-23,-1.8335100106711557e-24,-5.768575150239861e-24,-5.187979200856263e-24,-9.48033206149163e-24,0.04714835995883749,0.015570527090381031,-7.431879643171824e-24,7.977635734289682e-24,0.0018156568246210864,2.947169847424647e-23,-1.2395719462034354e-23,0.04872761731519671,1.0175756373001223e-23,1.09072654695378e-23,-1.36096164861451e-24,-9.739355399684781e-25,1.9625805034552702e-23,2.1030220316818595e-24,0.05834672136726824,2.7137455691455987e-23,-1.655924219968177e-23,-1.2024716687795617e-23,0.03606877535942001,0.005122358761136402,7.745243973234731e-24,-2.0319068306366238e-23,1.562929871128415e-23,1.7557315407636283e-23,-1.1837057699952299e-23,2.6866803767334e-24,0.07882703748466988,-2.1698780098449765e-24,-1.3952567907479565e-23,0.04842088633076196,1.8297614743094477e-23,0.047578016539382505,2.7233964015956216e-23,1.545705734342099e-23,0.07473481082330528,-6.875534338865082e-24,-7.92784749702575e-25,0.057383302282597796,4.6447499188356036e-24,0.045763271500468265,9.087132781589787e-24,8.524847614053383e-24,2.023897935159732e-23,2.173776949433696e-23,0.01157641769224053,-2.0504210966060732e-23,1.5811581021566762e-23,-1.5171262724610186e-24,0.004883127143854891,0.021569202712831286,-2.2872161409591195e-24,0.015261116934245271,0.039449256048368936,-2.0362804932239568e-24,3.262331971164468e-24,6.012049000205602e-24,-4.477827818488943e-25,0.012864196903915819,-6.088397135082248e-24,0.019256956942912264,5.303226363002845e-24,0.0044340861556769395,2.1261423874202688e-24,-6.959608701007905e-24,-1.5628318362155083e-23,1.0636155082041823e-23,-5.739534876701832e-24,-2.1826881523490433e-23,-3.552990392402322e-24,5.936314744617226e-24,0.017222007110261978,1.1583833770431283e-23,-1.1374774380059426e-23,0.010503540397572593,1.478610391643621e-23,0.11185483593490998,1.1065219074446844e-23,-9.520447885661067e-24,1.3197872594160026e-24,0.0942454231044085,6.733998871862744e-24,0.002331158805056549
9.38163462344788e-24,0.01090838705791986,-2.8222037344682975e-24,-3.923974763742476e-25,0.027481817216347532,5.324319731798048e-24,2.5805557887354613e-23,1.3103088405525327e-23,0.030651128201430344,1.9808690160248878e-23,2.0924839172554263e-23,-1.8335100106711557e-24,-5.768575150239861e-24,-5.187979200856263e-24,-9.48033206149163e-24,0.04714835995883749,0.015570527090381031,-7.431879643171824e-24,7.977635734289682e-24,0.0018156568246210864,2.947169847424647e-23,-1.2395719462034354e-23,0.04872761731519671,1.0175756373001223e-23,1.09072654695378e-23,-1.36096164861451e-24,-9.739355399684781e-25,1.9625805034552702e-23,2.1030220316818595e-24,0.05834672136726824,2.7137455691455987e-23,-1.655924219968177e-23,-1.2024716687795617e-23,0.03606877535942001,0.005122358761136402,7.745243973234731e-24,-2.0319068306366238e-23,1.562929871128415e-23,1.7557315407636283e-23,-1.1837057699952299e-23,2.6866803767334e-24,0.07882703748466988,-2.1698780098449765e-24,-1.3952567907479565e-23,0.04842088633076196,1.8297614743094477e-23,0.047578016539382505,2.7233964015956216e-23,1.545705734342099e-23,0.07473481082330528,-6.875534338865082e-24,-7.92784749702575e-25,0.057383302282597796,4.6447499188356036e-24,0.045763271500468265,9.087132781589787e-24,8.524847614053383e-24,2.023897935159732e-23,2.173776949433696e-23,0.01157641769224053,-2.0504210966060732e-23,1.5811581021566762e-23,-1.5171262724610186e-24,0.004883127143854891,0.021569202712831286,-2.2872161409591195e-24,0.015261116934245271,0.039449256048368936,-2.0362804932239568e-24,3.262331971164468e-24,6.012049000205602e-24,-4.477827818488943e-25,0.012864196903915819,-6.088397135082248e-24,0.019256956942912264,5.303226363002845e-24,0.0044340861556769395,2.1261423874202688e-24,-6.959608701007905e-24,-1.5628318362155083e-23,1.0636155082041823e-23,-5.739534876701832e-24,-2.1826881523490433e-23,-3.552990392402322e-24,5.936314744617226e-24,0.017222007110261978,1.1583833770431283e-23,-1.1374774380059426e-23,0.010503540397572593,1.478610391643621e-23,0.11185483593490998,1.1065219074446844e-23,-9.520447885661067e-24,1.3197872594160026e-24,0.0942454231044085,6.733998871862744e-24,0.002331158805056549
9.38163462344788e-24,0.01090838705791986,-2.8222037344682975e-24,-3.923974763742476e-25,0.027481817216347532,5.324319731798048e-24,2.5805557887354613e-23,1.3103088405525327e-23,0.030651128201430344,1.9808690160248878e-23,2.0924839172554263e-23,-1.8335100106711557e-24,-5.768575150239861e-24,-5.187979200856263e-24,-9.48033206149163e-24,0.04714835995883749,0.015570527090381031,-7.431879643171824e-24,7.977635734289682e-24,0.0018156568246210864,2.947169847424647e-23,-1.2395719462034354e-23,0.04872761731519671,1.0175756373001223e-23,1.09072654695378e-23,-1.36096164861451e-24,-9.739355399684781e-25,1.9625805034552702e-23,2.1030220316818595e-24,0.05834672136726824,2.7137455691455987e-23,-1.655924219968177e-23,-1.2024716687795617e-23,0.03606877535942001,0.005122358761136402,7.745243973234731e-24,-2.0319068306366238e-23,1.562929871128415e-23,1.7557315407636283e-23,-1.1837057699952299e-23,2.6866803767334e-24,0.07882703748466988,-2.1698780098449765e-24,-1.3952567907479565e-23,0.04842088633076196,1.8297614743094477e-23,0.047578016539382505,2.7233964015956216e-23,1.545705734342099e-23,0.07473481082330528,-6.875534338865082e-24,-7.92784749702575e-25,0.057383302282597796,4.6447499188356036e-24,0.045763271500468265,9.087132781589787e-24,8.524847614053383e-24,2.023897935159732e-23,2.173776949433696e-23,0.01157641769224053,-2.0504210966060732e-23,1.5811581021566762e-23,-1.5171262724610186e-24,0.004883127143854891,0.021569202712831286,-2.2872161409591195e-24,0.015261116934245271,0.039449256048368936,-2.0362804932239568e-24,3.262331971164468e-24,6.012049000205602e-24,-4.477827818488943e-25,0.012864196903915819,-6.088397135082248e-24,0.019256956942912264,5.303226363002845e-24,0.0044340861556769395,2.1261423874202688e-24,-6.959608701007905e-24,-1.5628318362155083e-23,1.0636155082041823e-23,-5.739534876701832e-24,-2.1826881523490433e-23,-3.552990392402322e-24,5.936314744617226e-24,0.017222007110261978,1.1583833770431283e-23,-1.1374774380059426e-23,0.010503540397572593,1.478610391643621e-23,0.11185483593490998,1.1065219074446844e-23,-9.520447885661067e-24,1.3197872594160026e-24,0.0942454231044085,6.733998871862744e-24,0.002331158805056549
9.38163462344788e-24,0.01090838705791986,-2.8222037344682975e-24,-3.923974763742476e-25,0.027481817216347532,5.324319731798048e-24,2.5805557887354613e-23,1.3103088405525327e-23,0.030651128201430344,1.9808690160248878e-23,2.0924839172554263e-23,-1.8335100106711557e-24,-5.768575150239861e-24,-5.187979200856263e-24,-9.48033206149163e-24,0.04714835995883749,0.015570527090381031,-7.431879643171824e-24,7.977635734289682e-24,0.0018156568246210864,2.947169847424647e-23,-1.2395719462034354e-23,0.04872761731519671,1.0175756373001223e-23,1.09072654695378e-23,-1.36096164861451e-24,-9.739355399684781e-25,1.9625805034552702e-23,2.1030220316818595e-24,0.05834672136726824,2.7137455691455987e-23,-1.655924219968177e-23,-1.2024716687795617e-23,0.03606877535942001,0.005122358761136402,7.745243973234731e-24,-2.0319068306366238e-23,1.562929871128415e-23,1.7557315407636283e-23,-1.1837057699952299e-23,2.6866803767334e-24,0.07882703748466988,-2.1698780098449765e-24,-1.3952567907479565e-23,0.04842088633076196,1.8297614743094477e-23,0.047578016539382505,2.7233964015956216e-23,1.545705734342099e-23,0.07473481082330528,-6.875534338865082e-24,-7.92784749702575e-25,0.057383302282597796,4.6447499188356036e-24,0.045763271500468265,9.087132781589787e-24,8.524847614053383e-24,2.023897935159732e-23,2.173776949433696e-23,0.01157641769224053,-2.0504210966060732e-23,1.5811581021566762e-23,-1.5171262724610186e-24,0.004883127143854891,0.021569202712831286,-2.2872161409591195e-24,0.015261116934245271,0.039449256048368936,-2.0362804932239568e-24,3.262331971164468e-24,6.012049000205602e-24,-4.477827818488943e-25,0.012864196903915819,-6.088397135082248e-24,0.019256956942912264,5.303226363002845e-24,0.0044340861556769395,2.1261423874202688e-24,-6.959608701007905e-24,-1.5628318362155083e-23,1.0636155082041823e-23,-5.739534876701832e-24,-2.1826881523490433e-23,-3.552990392402322e-24,5.936314744617226e-24,0.017222007110261978,1.1583833770431283e-23,-1.1374774380059426e-23,0.010503540397572593,1.478610391643621e-23,0.11185483593490998,1.1065219074446844e-23,-9.520447885661067e-24,1.3197872594160026e-24,0.0942454231044085,6.733998871862744e-24,0.002331158805056549
9.778406382869459e-24,0.010909409324611222,1.2134422102919597e-23,2.4508172817021617e-24,0.027482290324649033,-2.6106502550636237e-23,-5.255739141752493e-25,-1.7362909246703442e-23,0.030651237387350847,4.200611721168928e-24,1.7580242561768336e-23,2.363024387695976e-24,5.255266321557618e-24,3.883528753196141e-24,1.384248823463488e-24,0.04714764439365568,0.015570302497377638,1.743365901067111e-23,1.947010396737063e-23,0.0018152498355812406,1.8547710809477502e-24,6.708808182305963e-24,0.04872811724281939,-1.2333593000751663e-23,-2.977735090360122e-23,1.2997060933160982e-23,1.3670270764351444e-23,-6.02320080884265e-24,-4.445647438798143e-24,0.05834658502761373,9.087412892343684e-24,-9.764948194922224e-25,-1.1091044132345756e-24,0.036068504941798085,0.0051228516637131715,9.825880710410038e-24,1.370426900756578e-23,-1.8530834862450255e-23,-1.0194768566352655e-23,1.7995124584043493e-23,1.5367304540637484e-23,0.07882710845990759,-1.385535740339016e-23,-1.8136277641167607e-23,0.04842049976190021,1.2331843697649883e-24,0.04757802076818141,-8.337012464309516e-24,2.8159203407624133e-23,0.07473496848329485,1.667280173544739e-23,2.497387868355692e-24,0.05738310690812137,1.2350149050336675e-23,0.045763428619469276,1.5557851538494264e-23,1.565602510573014e-23,1.041955123965436e-23,1.3518912696361613e-23,0.01157675878684791,3.2563522013723744e-24,5.646389905809995e-25,-2.2095529836938822e-24,0.004883479349558549,0.021569256719068605,9.486880455413217e-25,0.015260560011138258,0.039449117797242424,4.871082584985437e-24,1.1126910958496861e-23,3.630123815054511e-24,1.516418469791963e-23,0.012863927526733501,-1.136634551359293e-23,0.0192567923145817,1.4491224183172284e-23,0.004434267343993277,3.024167814156128e-24,-5.900972977657029e-24,-2.709760618775612e-24,1.6974955935444384e-23,-1.828929100353807e-23,-3.9514267776601127e-25,-9.244972011489628e-24,-2.6442079535441316e-24,0.017222055776566565,2.9089313669869958e-24,6.811069433034235e-24,0.010502907424919519,1.414718658661989e-23,0.11185425141004031,3.7480823368440045e-24,2.3808074660745213e-25,-7.506051795471236e-24,0.09424609427101485,-5.18419179838809e-24,0.0023312056282498326
1.5478124384386724e-23,0.024932920805062618,6.806023972736027e-24,1.4842212430674929e-24,0.03425001582788499,3.1282305548171984e-23,6.838354372479845e-23,-1.2777224404867394e-23,0.03076497445840684,0.007476802581339164,1.1018252549223204e-23,8.417204230105914e-24,7.630230084868857e-24,-7.9997095320587955e-25,-3.2762815389397472e-24,0.033556720020058946,0.012075879484201902,-7.547063550490591e-24,1.8202752463633126e-23,-1.1211252000496807e-23,-2.009291131132756e-24,1.3009439856701697e-23,0.05327573124789276,-6.06201954681659e-24,9.34398895955675e-24,9.57960818477707e-24,1.1149195036712133e-23,-1.3041153393167732e-23,-1.9306571590982753e-24,0.05763062383392421,-9.130888781824837e-25,2.2466566907987546e-23,-7.735948173619328e-24,0.031770512467035994,0.010919712490765301,-8.045014713760479e-24,-1.9529296322699813e-23,-7.013197480613723e-24,-5.381813261084476e-25,-5.404165300654975e-24,-2.893628024937246e-23,0.07822401526958946,1.8216290771696577e-23,9.415236493632405e-24,0.04219140428396709,0.017198492792948907,0.04673354431619211,3.390758136557709e-24,-1.2383537420786842e-24,0.07653947468588879,8.412898747697969e-24,-6.6096798555284395e-24,0.05310228212646256,2.4256917436470604e-23,0.044876831345425895,-1.0421330017212083e-23,2.5608628642832173e-23,5.575726218508604e-23,-5.190573975599902e-25,0.015439623511698667,-1.4387415189012845e-23,2.041249984711156e-23,-1.2478503904923718e-23,0.007440489186098497,0.019953587992411696,-1.1220876572146343e-23,0.0046609026437713745,0.03632337521211488,0.0015699804877040962,-1.6979867515679455e-24,-2.3080232736046128e-23,1.425966924432656e-23,0.005630880414074058,1.4992171690287343e-23,0.013981024639655877,-1.6481743552385246e-23,0.006114380724015638,-7.434864311406755e-24,-8.272457113165764e-24,1.385071054974911e-23,5.5401475971979135e-24,-2.3155367103601354e-23,-1.1690740134512253e-23,0.00673790619677995,5.710724084752339e-23,0.017740236154582537,1.419140504888098e-23,9.993656653296578e-24,-1.5125286560694144e-23,-2.9218642921905827e-24,0.1009363941114037,9.716246423694653e-24,6.85988126697224e-24,-7.64582520197573e-24,0.10485147814422133,5.92971412774501e-26,0.0030998025444203318
-9.658325189856558e-24,0.03400194006212548,2.0821392832522278e-23,2.1565295856797732e-23,0.03894415352330623,3.1211425168683463e-24,1.131339974506024e-24,2.9043607683152363e-24,0.026638972953516516,0.01468211544377217,-1.132467477927824e-23,-8.029798364685574e-24,4.37860618083293e-25,6.898937660193438e-24,1.5535858487757518e-24,0.022085768513139214,0.007223755400792658,4.199127731215169e-24,0.009292873567702063,4.823613346089562e-24,1.7415554267650114e-23,-7.984195059428521e-25,0.05352215140069634,2.999825947118567e-24,-8.905136977385295e-25,1.9539811239903123e-23,-1.469009474314714e-23,2.4652870739065024e-23,-7.536603525426351e-24,0.0586991063409996,-1.924817974140531e-23,2.0092983398133063e-24,3.988734150701648e-24,0.027403932747598912,0.011307416227174892,6.781865924950524e-24,-9.76543867154931e-24,-4.64759432865844e-24,9.092936051728891e-25,-1.1837288393183988e-23,1.5099602732146852e-24,0.0773038724848685,8.714048150419225e-24,-9.170043263557873e-24,0.03780814083561439,0.03161482285227637,0.0452429489938712,-3.5807580797675015e-24,-2.6901221976869968e-24,0.07673838900739395,-9.859861855025735e-24,-3.755686962374052e-24,0.04870500200601892,3.1776623776391366e-23,0.04353840155962127,1.6900092085862854e-23,1.3668050966374455e-24,1.0269757880339485e-23,-1.12238001835511e-23,0.01655053119312312,6.979498388227733e-24,0.005489901823957982,2.628111484252296e-24,0.005703240288022326,0.016132969622494615,4.452651358707686e-24,9.367936172839151e-24,0.03364656837765028,0.004045716591915411,1.8398777119555406e-24,2.3348211083737834e-23,1.6992265431381094e-25,2.732306789972001e-24,-3.128985143934476e-23,0.007083895185198245,-1.2346522393844871e-23,0.00684653196459316,-8.45330643371295e-25,-3.1350747453880025e-24,1.1367094239646816e-23,-1.0888873305667287e-23,-2.815295967712619e-23,1.3567864415740332e-23,0.011800167450464178,0.003312570005789327,0.01685905438944899,-9.624698105072201e-24,9.958026325709298e-24,7.84401291661564e-24,3.299855085541056e-23,0.092416136614504,5.555018815413813e-24,0.001849003794148995,-5.026867163656399e-24,0.11232909637463935,2.8537884769638907e-23,0.0011808524035612715
1.146294389694866e-23,0.041406582821952864,-5.078344175450448e-25,1.0039254746589978e-23,0.042330153815496874,-2.2509445030191363e-23,-1.2511678920806498e-23,-4.394384935293796e-24,0.02116735384035553,0.01921536114534267,2.3867058175573835e-26,-2.940478489982429e-23,-1.4719064964615624e-23,1.476708747121526e-23,3.63478638484965e-24,0.010120246749698017,0.0020345720607772544,-6.3016660642614e-24,0.017442552964088528,-1.1879105901367885e-23,-3.868781483422287e-23,-1.802407114993438e-23,0.05302684020485891,-1.5188470874429881e-23,-1.7119625041868408e-23,-6.683168886550779e-24,0.0005738202159811024,1.3492380767115589e-24,1.0717478609598259e-23,0.05865360781617272,1.6354396271019837e-24,-3.2530497105868054e-24,-2.3299219910643e-23,0.021718390336346143,0.009961397104148326,1.7884311249314547e-23,-2.4048158694740866e-23,2.330387068132463e-23,-1.3183144643850463e-23,-4.469611153932799e-25,-3.053480947280887e-23,0.07565367187881855,7.315713842823315e-24,-4.387762788769714e-24,0.03394745950517049,0.04403341369913772,0.04353653654368769,-7.50351209137028e-24,1.3470507857285074e-23,0.07717233906778007,-1.1329516432355371e-23,-9.377392414862234e-24,0.044938294738055065,3.7867974635390955e-23,0.041096167637039306,-3.947491485848183e-24,-3.926000045984903e-24,-8.954030698828186e-24,-2.5219132683979547e-24,0.01689282521854491,-9.45858303168811e-24,0.015989011984652128,7.265449037282151e-24,0.0032279044896187025,0.012259250647498129,9.448688579273847e-24,1.7305458591952595e-24,0.030487616019482234,0.006528844815324609,-5.472772028837938e-24,-5.235163901899942e-24,-1.0653187092423632e-23,-2.9135980927511767e-23,-2.9604293266350533e-23,-2.838686337896359e-24,-5.180146536120781e-25,0.008176680702415081,-6.2882083299669636e-24,-1.549643436585091e-23,-2.276524564556677e-23,-1.8959859049455324e-23,-3.300359292671605e-24,-1.745440248871358e-23,0.015672117511012416,0.0065535206151559194,0.015475818069739865,-2.6277079617251594e-23,1.2873435101119305e-23,-2.106808478719659e-23,8.147751774539401e-24,0.08441076258572888,1.7273258815306508e-23,0.007188521311370559,-9.342982892407818e-24,0.11910836388454882,6.549147585640092e-25,1.710939760899526e-23
1.1310733046571161e-23,0.048457186550673916,6.130786176049391e-24,1.1428041501799658e-23,0.04592880277977702,-4.184838015450355e-23,0.0024092491742127055,1.5905030490210138e-24,0.01440940129598007,0.02318782065305367,-1.645190379253082e-23,-2.2438510553328857e-23,-1.7067407409284606e-23,8.887538253258073e-24,4.782551262139269e-24,8.21337188425466e-24,-5.186036834736841e-24,2.2113972774353426e-23,0.023544014000495807,3.0325360069201028e-24,5.772543441031754e-24,-4.04242418384262e-23,0.05212822615855542,1.1839024385750589e-23,2.0734143052878932e-23,-1.3777338842220178e-23,0.0045350572151399635,-1.1057920559616609e-23,1.5611963665303274e-23,0.058820540999914794,7.113907874743626e-24,-5.434193508756649e-24,-3.351895258235096e-23,0.015242384487186332,0.007900786989423422,-2.9914354233437394e-23,-1.0356347004719186e-23,8.471275201790165e-24,-2.0103157282103973e-23,-5.774376874687777e-24,1.0369256527773481e-23,0.07339846672794288,-9.07233762274769e-24,3.152141175231443e-23,0.02897668945865277,0.05651106435285703,0.0411147177265598,-2.380024031655067e-23,1.1169486009172484e-23,0.07666136020788285,2.9124186297159626e-24,-3.754882086133563e-25,0.040994493109601834,-7.437143403279336e-24,0.0381099708917905,-2.0383411132270606e-23,7.549603417705776e-24,-1.3916726760089446e-25,9.214420044988185e-24,0.016743532442979766,3.632793347718021e-24,0.025313321004171215,-2.742027254931942e-23,3.0526975252881164e-05,0.007813264031289263,1.393145801866517e-23,3.287865388501167e-24,0.02673569320326338,0.008707539128374301,-1.1850726786844552e-23,1.3481664770993653e-23,-1.9723795356138643e-23,6.954272967419318e-24,-1.3977778276927293e-23,4.243103220357258e-24,-1.2882376145874372e-23,0.007310844930993371,-3.104802829406998e-24,4.787813985077834e-24,-2.5720655590425967e-23,1.8998994203181365e-23,-4.214842045053154e-24,1.2267067764635354e-23,0.019317691110240648,0.009486403524954857,0.011358445985351759,1.4881289227495874e-24,-5.09938844245107e-24,9.427175075213835e-24,1.583348796604607e-23,0.07610078694093857,-1.958234321846758e-23,0.012698309396431608,-2.652200842276607e-23,0.1260534085460579,1.0278576894640398e-23,-1.7303492814199052e-23
-5.588492073922581e-25,0.05447599194767396,3.464396805564376e-24,1.4867325957367005e-23,0.050246065288991455,-7.17678508953073e-24,0.005782235849808953,8.063040351851145e-24,0.006609460055682752,0.027072297047844807,1.1606030185984943e-23,-3.5013919066551874e-23,3.152647134199906e-23,2.2489601461115446e-23,1.9713397905085983e-23,-8.724084470062886e-26,9.154194447972582e-24,1.013007940455899e-23,0.029405536791643906,-1.1186714228313684e-24,-1.8989469712051065e-23,7.59435313752256e-24,0.05140932900967474,-6.254152031315754e-25,1.1603445882787227e-23,1.2201182541822028e-23,0.008548815234759616,-1.6133122472245896e-23,-9.053946269590428e-24,0.0588218881582856,4.4170341621047485e-24,2.880301765954911e-24,3.1188680936440486e-24,0.006665110742260128,0.00520797378314537,-1.463719800916699e-23,3.321396945968613e-23,6.718375625923106e-24,-9.105793989495924e-24,-4.6916997943346885e-24,-1.9194760888656823e-24,0.06893242562763907,7.12346585508732e-25,3.9053046229495523e-23,0.023336094351691747,0.06874606266160295,0.03747062488766524,1.2269162234875846e-23,-1.8058556035201134e-24,0.07555949552463544,4.265320670123324e-24,7.770712935245277e-24,0.036118629925770036,-2.1074215339285353e-23,0.033541904495116445,-1.4553907826559436e-23,-3.57201878136088e-23,-1.530853524141138e-23,1.1736414407820159e-23,0.016341740461832066,-1.8207630772420304e-23,0.03512325350571944,1.2848757597196714e-23,3.4822643977451855e-24,0.00222492716342172,2.4865440799172094e-23,-1.5584981442590743e-24,0.021966001701225972,0.010919311052210568,-2.8646951275947625e-23,-8.581725796408664e-24,-1.0578741227562378e-23,1.344347499392533e-24,-1.5492443044388134e-23,9.647594110284632e-24,-8.499556889612879e-24,0.005008337006335034,1.3558443922660358e-23,-1.873226402363332e-23,1.4380908156644863e-23,-1.3683188311732667e-23,-1.4966541001120372e-23,-1.7351941381165528e-23,0.023310666838586104,0.012622770727152566,0.005910738373708625,-1.4197402271997915e-23,-2.6096924400642126e-23,-3.92334122908727e-24,-1.5567076347895573e-23,0.0666226048307184,-2.6730536883568102e-24,0.018595729305292647,-1.1609705273864141e-23,0.13340397764990464,1.1812353687991875e-23,-4.7466897446846565e-24
-1.720988613562543e-23,0.06035077708349586,-3.774057280650098e-24,4.112578972950063e-23,0.05393079662662919,-1.1879856062468284e-23,0.009224530645660235,-2.2877609164073468e-23,1.0377900956404564e-23,0.030746940119259738,8.05407889046922e-24,-3.131891645494969e-23,5.877201336262024e-24,-9.960969675416351e-24,-1.2616919858418103e-23,-3.1068370184404627e-24,3.1332128017215674e-25,2.1871034854321645e-23,0.035203046272024266,-5.2600234912862515e-24,2.631775064849336e-23,1.0936752982286962e-24,0.050411119135770295,-7.506503836242199e-24,4.034001519013785e-24,-9.699231826066768e-24,0.01246727328298414,-3.062699711871806e-23,-1.7444402707462997e-23,0.058090415973633965,-9.122114043864919e-24,9.847771659968934e-24,5.059576835840459e-24,6.4510443455597494e-24,0.0018358567991509952,7.352930673023154e-24,-4.866804273134473e-24,-2.1179149165422257e-23,4.746867336752194e-24,-1.1338811668139736e-23,2.8266319747541367e-24,0.06417718333121,-6.3999067765801995e-24,4.3849711019122544e-23,0.01738094189777636,0.08114628139862036,0.03363622111542747,1.5628532537746406e-23,-7.049449125527014e-24,0.07412016172912914,1.2134062764836503e-23,3.147991440123928e-24,0.031147041700723067,-1.870292138677818e-24,0.028529428280701614,1.8272967635961698e-23,-2.612378529073564e-23,2.5527054528311683e-24,1.1741561611091303e-23,0.015683744004355203,-1.0434957364569677e-23,0.04514387006630885,-6.372868252728784e-24,3.944984932308711e-23,-2.102135976689537e-23,6.54596616707427e-24,-6.644665231204747e-24,0.016947536693746598,0.013061948948225275,4.3512705002803667e-23,1.7267233091339364e-23,-4.018854471090144e-23,-8.857117095545304e-24,7.21923594107684e-24,2.6586213374306835e-24,1.7467467997937786e-23,0.0024457402549193197,-9.765033468118666e-26,-4.8656796350281885e-24,1.0061424531780666e-23,-3.015357992901434e-23,-5.567091952936412e-24,-7.168456281191523e-25,0.027143105486999827,0.015637391544073863,0.0003007639509823042,4.9258780288310134e-24,2.4334476003854766e-23,1.6947741877995466e-23,-1.0849632949727297e-23,0.05658402240160638,-9.739341852898182e-24,0.02391331843144948,1.74936342012485e-24,0.1407405428251363,-1.5235088325320546e-23,4.39729260575233e-24
-5.523247893821793e-24,0.06532373527263102,1.3900684269064866e-23,-6.746804000125145e-25,0.05756772442651692,4.12219148585328e-23,0.012638422605865882,2.5338029107038013e-23,5.738308800160284e-24,0.03371340056853244,-4.707234983170225e-24,1.0347628286301615e-23,3.2850604587134835e-24,2.8019215254778977e-23,-9.030650141406102e-24,1.986462976523748e-23,8.443632712490726e-24,-3.481908272522499e-24,0.038988962600453814,1.3473906185179403e-23,2.658174009174368e-23,1.0138835293159671e-24,0.04804627401540177,-1.565189370267106e-24,9.324263176705993e-24,3.381938675182855e-23,0.01595388959392297,4.0522568739573675e-23,-1.0703074283907921e-23,0.05698528098861312,-1.9002823231802594e-23,1.0977126119423839e-23,7.981937746587146e-24,-8.030014128073728e-24,1.6343091004769312e-23,-8.486717830075976e-24,-2.3452838892933108e-24,2.975918324688726e-23,-3.6116086978300446e-24,8.580578296436623e-24,-6.751238741941216e-24,0.057112828211844095,-9.951848752951247e-25,-2.64718460726234e-24,0.009195847873936071,0.09468426931172041,0.028467894695394617,-7.880466685950665e-24,-4.246660289656876e-24,0.07125699018578302,1.7585715756644662e-23,6.100742037347348e-24,0.025397703994835746,-2.501173698581325e-23,0.021573251537003565,9.923642926670962e-24,2.910008639690656e-23,-1.6288182739539086e-23,-3.951345268880322e-23,0.012790618139506545,2.7235763491844164e-23,0.055594237224488446,-1.6071800986846495e-25,3.5509978783171546e-24,-4.938598816060608e-24,9.704312323201507e-25,9.92934356887834e-24,0.010845370746991307,0.014641516115172015,6.694629155985598e-24,1.710521905671859e-23,4.3444402368088703e-23,1.7283968835243753e-23,2.1529137172634886e-23,1.5349917324255277e-23,2.6064456756727874e-23,4.737546385337321e-24,-4.505976813862687e-24,-1.7333733966223362e-23,3.4364768375281283e-23,-1.0248759009710434e-23,-3.640444843822716e-24,1.6127865390181601e-24,0.029916224272761742,0.018133676108380313,7.594079540745218e-24,2.009251479001318e-23,-2.1763289300548962e-23,1.376820918771058e-23,-3.417879160468067e-24,0.04374739103423182,2.817725845937756e-23,0.029224695261708077,-7.719058980082035e-24,0.14819979521430435,-8.022259001368085e-24,3.722796915451602e-24
-2.3697647632110953e-23,0.07018151034762292,3.7874767759232677e-23,1.442041192741595e-23,0.06127102141137584,-1.8799314177799964e-23,0.016054285780536394,1.2620173555016215e-23,3.1040535488899172e-24,0.0363890938551519,-6.324940051413418e-24,2.1698380815381936e-23,-3.3414693298339896e-23,4.8311500817825866e-24,-1.339507008602087e-23,1.654834677701694e-23,-2.3742554416835083e-23,-1.750330652635207e-23,0.04192980163083305,2.2824404676891238e-23,2.4240682170571576e-23,1.2221943078138979e-23,0.0456753663902552,-1.1907792250335041e-23,1.8252289370858073e-23,-1.2336249807134916e-23,0.019215044357061044,-1.2950031023741202e-24,-6.859456990398328e-24,0.05602416783965479,-3.068070290986478e-23,1.184369743660093e-23,-2.2731177502687143e-23,9.243354305567981e-24,-6.245114551294197e-24,1.2401596978301521e-24,7.993533131349486e-24,5.475038672171929e-24,-9.500127832669668e-24,-2.936206188351401e-23,9.900417207849287e-24,0.049685595080388834,-2.142959572131158e-23,-9.396198426820505e-24,0.0003088807068599879,0.10843336715930944,0.022935945645935322,-4.3304694491061677e-23,9.758366694252857e-24,0.06783644462846145,1.9383137577196354e-23,1.935963038828739e-23,0.01943157398521284,1.2602618958012545e-24,0.01432727993837567,3.6736502485689023e-25,5.257958400216319e-24,-2.1257946864751596e-23,-4.13045878378896e-24,0.009667446047592574,1.8915406969231788e-23,0.06605691259114235,3.196573440570486e-23,1.6404685277959183e-23,-1.1728306078475474e-23,4.6648657752852044e-24,-1.5725768528244543e-23,0.004771052384902438,0.015841275946081597,-2.521737638085668e-24,2.1982495223310122e-23,2.668593903943302e-23,4.618504600682039e-24,8.924016536334986e-24,3.4360933830128636e-24,1.6826673121575714e-23,-1.480743627003839e-23,2.043744354255669e-24,4.276601887683856e-24,2.087799243723612e-23,-1.4929109407914558e-23,-1.0674511064553231e-23,1.390488983642406e-24,0.03248502341381361,0.020514758540668053,1.4912669285794578e-24,-7.651451817839763e-24,-9.854166811123556e-25,1.5862473471468898e-23,-1.7980101363482894e-23,0.030436187669199113,3.17512637088071e-23,0.03470366509214945,3.648852185236708e-23,0.15582429955741614,-1.389888103059291e-23,-1.457514424367487e-23
-5.055607182754057e-24,0.07482198458642067,2.5394817610632106e-23,1.4897549373135703e-23,0.0641815739430381,-4.292290126524843e-23,0.019550711179838316,3.0954072794790676e-23,5.338480605781811e-24,0.03907367332156102,8.338986632587886e-24,2.4183383389154453e-23,4.188225327080773e-23,8.550748781489801e-24,2.1582610847845908e-23,2.6402372060239642e-23,-6.864407622690807e-25,2.304368721836967e-23,0.04483445962914568,4.3758899763170384e-23,2.1500675875454894e-23,2.167382886451159e-23,0.04250798487076924,1.692548634489068e-23,1.4385236965838053e-23,3.409957225278174e-23,0.022344200030298193,2.730750101651742e-23,-3.242570586689197e-24,0.05434891523912358,9.176129859514063e-24,6.561072648995863e-24,4.509277469038407e-24,1.8578562455878302e-23,2.5401956291669588e-23,-1.128084018975051e-23,-3.2951593779015895e-24,2.0501213138102973e-23,3.106941117736324e-23,2.98590686469097e-23,-9.150361398232315e-24,0.04129791107365439,1.4738423259488736e-24,7.201595252645393e-24,1.3287064928230594e-23,0.1224994814926431,0.016602290787379303,-1.2891849369459739e-23,1.2788904450849898e-23,0.06311962448763739,-1.1769727159507917e-23,2.957444501089864e-23,0.012567422122886108,-1.7487391546145452e-23,0.0063759289165438455,3.4267623666255087e-23,-1.7746618527340298e-23,-5.070734706928814e-24,-1.1849843119750777e-23,0.006505747172431711,6.858157273156832e-24,0.07684721323034954,-1.374930322804099e-23,-3.0891068143590453e-24,1.007235198806511e-23,1.6071238481354307e-23,1.9110398557460374e-23,1.6301569574730962e-23,0.016069640902251315,2.5466304006270266e-23,1.0150515085172201e-23,1.077049093698788e-23,4.797274520534412e-24,-1.853114224660805e-23,2.466480991398635e-23,3.7238446341511903e-23,4.983729932015005e-23,4.672798844401292e-23,-1.705964272971968e-23,1.5697024695275964e-23,1.7993700862134233e-23,1.345865345044895e-23,4.432968338261107e-23,0.03481193453606049,0.022950501535881525,2.727543510649509e-23,1.2711756681584441e-23,-1.8370598559038493e-25,2.167956419372838e-23,-2.4453688035246288e-24,0.016060920944520968,1.7907157475148112e-23,0.03936374326385215,1.9175725667502714e-23,0.16326413673371334,2.1034223980431516e-25,1.2539332374309254e-23
-1.8754440099964448e-23,0.07910169238048252,-3.464221704799768e-23,-2.874957590967229e-24,0.06670188831707795,-1.6134405270289127e-23,0.023106397857364423,2.895422835182866e-24,-6.635661986393511e-24,0.04177284950841052,8.196380225553804e-24,-4.345299344434365e-23,-8.542523507340693e-24,-2.9619334565194223e-23,-6.458861289705486e-24,-2.7920337774785494e-23,-3.2368570302657066e-23,3.2243802347761512e-24,0.04786492788588769,-2.8933634140073563e-23,-9.289185931312536e-24,1.2389634871416607e-23,0.038819809148332905,-2.4189451851505215e-23,7.839615160021183e-25,1.0832844952574993e-23,0.025394637141110923,-4.466764663489325e-23,-4.145662175478033e-24,0.05224573348378958,-3.291720625532173e-24,-1.4740514383762987e-23,-2.2333570532208078e-23,-1.0942699023960071e-23,7.354116897512106e-24,4.102857912001471e-24,-3.057376612376432e-23,-1.0679345682509201e-23,-1.1570109997611386e-23,-1.8310373972016664e-23,-5.110270933842066e-23,0.03173519001723224,1.0231877483116685e-24,-2.6078557000848095e-23,-9.272253038096795e-24,0.13634038456975245,0.009935803811227401,-6.634276347807925e-23,2.315489348054647e-24,0.057690357975756626,-2.1855231669481564e-23,-1.961728825222499e-24,0.005196099225430777,-1.448069144603133e-23,-1.1489286015392624e-23,2.4565086182590124e-23,-3.5480608673005497e-23,2.6534349881600837e-23,-8.748912695222643e-24,0.0032525198355842166,-3.9252706647537865e-24,0.08784037263732684,-3.270037677042828e-23,-2.205489522021748e-23,-1.8817256814509114e-24,-3.044304106094664e-24,-1.2129023745768864e-23,-1.549737089874929e-23,0.015854584696405792,-2.859803213599406e-24,-2.9500082592152234e-23,-6.844397812209879e-23,-4.320021362420633e-23,-1.909999716045411e-23,-2.2713716496610232e-23,-1.2127182982661437e-23,2.633890622657716e-24,-5.692779052898933e-23,2.1344973561967442e-23,-7.713223889331166e-24,1.0232050794157928e-23,-1.3375304366090718e-23,-1.0974447933520977e-23,0.03705621653069148,0.02545519460971399,-4.263516845605932e-24,-1.424559280974398e-23,-3.155898195894742e-23,-1.4863769955032576e-23,2.525967489236734e-23,0.0007809430841548463,-4.190839033313727e-23,0.04360502420297095,-1.9631148284299565e-23,0.1702493730812958,3.1876634929720633e-25,-2.1988147081206452e-23
-1.386668436229243e-23,0.08178575342053014,9.449659608993423e-24,-1.9342279906755904e-23,0.06681939901180015,1.592390831007518e-23,0.027075475108616312,1.9619068060757088e-23,-1.2635695116248317e-24,0.04492560464644989,-1.6303358427345818e-23,4.121436100398276e-23,-1.5406700201233e-23,-6.2289603723421354e-24,-6.5695205281705484e-24,4.989436620262961e-24,1.615985361017609e-23,2.887969986490983e-23,0.049966936098985636,1.3955364670626135e-23,-4.954610621639102e-24,1.0280267500597484e-23,0.0336988889951804,2.7518308195656414e-23,2.5147269778185426e-24,-9.40835904888629e-24,0.027997107031662836,-2.3235827372945023e-23,-8.545325657945263e-24,0.04730530830955013,1.1751752371327285e-25,2.963067835063345e-23,-2.1938768354029372e-23,6.2627017206362e-24,8.96714136749847e-25,6.339392981238038e-24,1.1266224535167845e-23,-9.707375779978608e-24,7.230953837468876e-24,-1.325966555529872e-23,-3.4240275164788614e-23,0.016607708342702105,1.3240053637774663e-23,-1.465568177451493e-24,-1.2209257518625132e-23,0.15036934866776258,0.0014265717607242297,-3.551260038934524e-24,8.412282184897156e-24,0.04933405906190016,-2.197013697560236e-25,1.8431362594993292e-23,1.3754541193962622e-23,-1.7490769286085656e-24,1.710143162498832e-23,1.2966076339671676e-23,-2.236922217796206e-24,3.612141856454334e-23,1.4079708083659955e-23,-2.2184400251867335e-24,1.351133926783925e-24,0.10106546862588586,-2.734141023141729e-23,7.906448109523982e-24,2.50642111071387e-23,4.9063582813789e-24,1.9914289869768322e-23,-6.493281532830882e-24,0.012891310819310966,2.607853559762751e-24,1.730688151704746e-23,3.2931652877268375e-23,2.1702624814251874e-23,1.1504427704198325e-23,-7.464034839186005e-25,-1.6256564800268117e-23,8.321848507462446e-24,1.455278865610206e-23,4.597222878977633e-26,9.833807269911802e-24,-9.644861686631566e-24,7.115572451673254e-25,1.9193574648459506e-24,0.036498682564220356,0.0283715147301809,2.6140215805823537e-24,4.865537847758738e-24,3.585369556894554e-23,1.2189363608123808e-23,-4.792916884912557e-24,-5.871091508547175e-24,1.284775133982308e-23,0.04758632726393916,6.4738113934582025e-24,0.17627453554059835,2.8091177500439956e-24,-1.3879988148219356e-23
1.7608868165725414e-23,0.08371758978251431,1.748540490115951e-23,3.367915382805092e-23,0.06563680631393091,-3.2059638032709265e-23,0.03113688254166324,-3.326752974525472e-24,-2.1344615645545648e-23,0.04808477220406128,2.953797248666522e-26,4.964112021663815e-24,2.8652842968320065e-24,1.427339880932058e-23,-1.0721857225091203e-24,-1.7425188159028123e-24,2.9164267922073446e-23,-6.031020039046166e-25,0.05110309843582305,2.3387925974251276e-23,-1.1569986498412963e-23,-3.011643382014771e-23,0.026732868455085733,-1.998366461741163e-23,-2.0442018171453525e-24,-1.2758718896456495e-24,0.029611374217878683,-1.8704734405807e-24,1.0101625038620311e-23,0.04042224084624918,-3.4869846475532667e-25,2.4583951551167613e-23,2.2887252602797786e-24,1.9890996417916432e-23,1.2116096030380314e-24,-8.67484006157347e-24,-3.548112321571613e-23,-1.1244605998553266e-23,7.569525562063233e-24,-1.6911553112696707e-23,-1.0339298212843103e-24,1.388223752733677e-23,-1.0081718380172018e-23,-4.733733731433498e-23,-2.7258467449208664e-24,0.164484249710523,1.6585234483646266e-23,-3.359967676072537e-24,1.0526961693870449e-23,0.03889106937887555,3.7391120593071105e-24,-2.215087479964596e-23,1.545311613262449e-24,1.596121564880507e-23,1.0594163986156846e-23,3.679888673298366e-24,2.766526929354139e-23,2.5710626534394742e-23,4.4393540559725275e-25,1.1225282900465166e-23,7.003749192464643e-25,0.11488805873949635,1.824144676239233e-23,3.173936517908447e-23,1.0414338819484177e-23,-7.695975619405538e-24,1.4037919990372618e-23,-1.333590974361959e-24,0.006934496521968461,-1.3727392041700982e-23,-2.853383791201549e-24,3.254549139818149e-23,2.770771846117473e-24,1.8107357705907516e-23,3.542415060343882e-23,1.1017821141421218e-23,2.3986080645318446e-23,4.2524985869607316e-24,-8.300185225187838e-24,1.4089582444038777e-23,1.415189598452292e-23,1.5796131577238836e-23,7.89054445605668e-24,0.034409723588265904,0.031198508569943793,2.924719271402602e-24,1.9154721680881507e-23,-2.1971635690470177e-23,6.7754937353827e-24,1.7576642770624022e-23,-4.016015526774822e-24,2.4214362953474932e-23,0.0511471701144875,3.6498926337577936e-24,0.18160109057923302,-4.840048394708215e-24,-2.3152254084196766e-23
2.7626131015451425e-24,0.08293229542936074,6.292290079542811e-24,1.9140586294510183e-24,0.06279051860187476,8.396884158777255e-23,0.03556381551624236,1.5595607924100906e-24,7.2208669195928475e-25,0.05182039615667078,3.4183704886210035e-23,1.1517850229074852e-23,2.0104118684424757e-23,-6.857388804431197e-24,3.2014895607568813e-23,-8.421769420958983e-24,-1.1929148678910138e-23,1.3849843847726844e-23,0.05111369617230009,-1.7570734933719517e-23,8.747080896741328e-24,-1.080742379102622e-23,0.017608788963838634,-1.94000090757377e-23,-2.2589329713921107e-24,1.392642768395269e-23,0.03058911658367301,4.804770026581226e-24,-3.0458793025053922e-24,0.030453583370625738,3.7719592549744104e-24,2.4424266174235223e-23,8.847848580630581e-25,2.3347350058406116e-23,-3.284070758232173e-23,8.640586861766981e-24,4.5247358409664423e-23,-1.4879205984343623e-24,-7.95855320888965e-24,1.8298636411566934e-23,-6.800038602658637e-24,-1.733464000369159e-24,2.856804596939631e-23,-5.384030651107366e-24,-6.0024757083697756e-24,0.17739134362399106,7.654001903593862e-24,1.7207972619551388e-23,8.949028952692021e-24,0.02488462073720369,-5.225215901398951e-24,1.2367709868984807e-24,2.8473090248487446e-24,1.6228458841995744e-23,3.641670653743337e-24,3.9005551431895567e-23,-1.957940551576768e-23,2.3900474609688113e-23,0.00023168366826065086,-1.6045432822047722e-23,2.130664255013684e-23,0.1302612837524327,1.198483687796307e-23,-3.268457717930125e-24,5.0044103614353675e-24,-5.040437779569697e-24,-5.056332542715672e-24,-1.7377444135019266e-23,2.1701935923868204e-23,8.898576755954772e-24,3.891762304939187e-23,1.2583937760434144e-23,-1.7363050267579917e-23,1.3349097186790805e-23,-4.7929168833236645e-24,1.9879149450562497e-23,7.763360187648181e-24,1.7476175499354174e-23,-6.530878446719601e-24,3.597147261423231e-23,-4.6009766860655236e-24,2.6833112126906614e-24,-1.0387466047197353e-25,0.031141254416269307,0.034371763819860235,-5.666937103641073e-24,-1.5657839378321184e-23,9.278828791406022e-24,2.2891608053789157e-23,-1.524269710116944e-23,2.330301446287933e-24,3.429089835991043e-23,0.053028580053954034,1.3375109138135226e-23,0.18581725913344224,3.927187352473334e-25,1.9288185015318156e-23
-7.40837296051762e-24,0.08144388434317892,6.90974068827104e-24,-2.314192389625945e-23,0.05874065429265309,-2.6162434517771866e-23,0.040142372001087355,-2.531643940160674e-23,4.2616048544109987e-23,0.05530066383229079,8.058122277374283e-24,-5.47608293394523e-24,1.4887007800399924e-24,-4.836914632532569e-24,-1.921656226790846e-23,-3.215686639055444e-24,-3.422995528180428e-23,2.916825694885953e-23,0.050815048683812765,-1.2976434178498167e-24,-3.8466520044533833e-23,5.333741044770474e-24,0.008001609351350107,2.3867847458835493e-23,-1.0787635871768269e-23,4.584398371334056e-24,0.031090917801231355,-5.052068708924349e-23,-7.82939065915068e-24,0.019297591741098668,1.369969637195829e-24,-7.964974731658556e-24,-1.838106861775839e-23,-4.79701828027384e-24,-1.3963767748048082e-23,1.4706672409866375e-23,-4.8123298780341486e-23,-3.271514362873569e-24,2.1372991077462223e-23,-1.604080150788076e-23,5.7897646543620395e-24,-8.055664887856188e-24,-1.4092322500729991e-25,-9.51054386137498e-24,-1.0873697359810017e-23,0.19013986626113752,-4.758162899024138e-24,-5.081254292410568e-23,-7.7903347496418345e-25,0.009066322510164471,1.3262975409871412e-23,7.466439791433578e-24,-1.830087627045152e-23,-1.377064151489768e-23,-1.4083580740775456e-23,-1.0022782931691834e-23,1.7107416836056118e-23,-1.511759111326117e-23,0.0011799967147024183,7.613169076421914e-24,-9.649521096938631e-24,0.1460743193571411,-5.1458456219199206e-23,-1.4970482577663007e-23,-2.469621697572473e-23,-2.1164619646623944e-23,-2.6910645267002075e-23,-1.749242647321005e-24,-3.662782307022524e-25,-1.8242698799819527e-23,7.333737412645776e-24,-1.2890591617268767e-23,1.0289409410823972e-24,-1.1140842754958208e-23,-8.982035031729721e-24,-1.5036850750773826e-23,-1.325659109197643e-23,-1.9752714081517506e-23,-9.185448079659348e-24,-2.160388875823125e-23,-6.717703782992599e-24,-4.588746221257716e-24,-1.460904063951281e-23,0.02722698993475909,0.037566734309095115,-2.0177345458934967e-24,1.361021277102814e-24,7.556003257115551e-24,-2.907468884157741e-23,-9.06982086445821e-24,-2.2941592007821638e-23,1.959147348765126e-23,0.05441859025115959,9.656488212164437e-24,0.1894944386151378,2.459412363686764e-24,-1.9639493955720252e-23
3.251997224575048e-23,0.07899617345616432,7.215108653659034e-23,5.0096120353284284e-23,0.05393845832794756,3.847136089145882e-23,0.04490716276376611,9.399721345725952e-24,4.503416511223567e-23,0.058193417240963906,2.4834327885099307e-23,1.0886599394367206e-23,6.232729708737613e-23,4.0537951631370146e-23,5.388553746887974e-23,4.363376142083072e-23,3.625995657009239e-23,4.0987737504246647e-23,0.050191061814582306,6.026024513623998e-23,6.5219913536118275e-24,5.538310939378682e-23,3.791702728338514e-23,2.413916120026707e-23,2.1745844619767688e-23,3.729066880675949e-23,0.030850253132551294,3.6957022387088565e-23,4.616450399614458e-24,0.0064824543163078605,4.6508673714996955e-24,4.013482940077976e-23,1.4616127604203498e-23,2.25151001700288e-23,3.5972449552981807e-23,-3.355563337504162e-24,4.503308938767635e-23,2.1615275713427798e-23,4.7013039255185653e-23,3.037365777155125e-23,1.0986413843131696e-22,2.235457622313284e-23,2.1424910611985153e-24,2.6528357109861707e-23,-1.832963651284878e-24,0.2031019135770798,3.07430198437111e-23,4.593677576026037e-23,2.1814431356280234e-23,3.498415902960002e-23,4.732590909374365e-23,2.5609994478055143e-23,2.0527459816516783e-23,-2.7280783097640733e-24,9.443656471133663e-24,3.5931110990521307e-23,3.043084949905704e-23,4.4012279829678176e-23,0.0014357044947805998,-8.535090876912107e-24,6.601709929582858e-23,0.162435353378184,6.36425038375497e-23,3.987318581167778e-23,3.182248422249791e-23,3.250945443410317e-23,2.9987828648726344e-23,6.200593161675816e-24,8.215886764545025e-24,6.507183622087653e-23,5.534358821996669e-23,7.34627412892082e-23,3.1200942018599214e-23,3.644849182037202e-23,3.6583322941191266e-23,4.098462029202035e-23,1.7776070005639086e-23,7.294785405449279e-23,1.7167761253331677e-23,2.061174809612215e-23,1.9011426371547065e-23,2.554116780182946e-23,4.372536974490615e-23,0.022047391930114707,0.04062813196473297,1.6572457348053383e-23,3.466633219838997e-23,1.8454385564308597e-23,1.8320447846195106e-24,1.94087420215294e-23,3.2293769083835846e-23,2.6182005713532484e-23,0.055132686484620545,2.774256867044725e-23,0.1916598371182041,-1.3308038511929106e-24,1.3556619686030006e-23
-3.489154451446313e-24,0.07450662441340287,-3.382187961464705e-23,1.0284371077254985e-23,0.044351273018967054,1.1258755690082215e-23,0.05015995918597288,-3.470106664790985e-25,-4.904636660968213e-24,0.060108327585338454,-2.1002620707899482e-23,-6.179727103051147e-23,1.3649907686999905e-24,-1.5453839440892934e-25,-3.362095215424528e-23,-1.3224585478631762e-23,-4.171193173286998e-25,-1.906854349893887e-23,0.04897745014746578,-1.5293603503230315e-23,-3.978388799442416e-24,2.8543601176593993e-23,-5.773075444102892e-24,-2.5206046658834758e-23,-1.1706085583304095e-23,2.3386358727814543e-24,0.02919029471741476,-3.1328286003454156e-23,-1.285405584819228e-24,-2.20330477815327e-24,5.827687616562541e-24,-1.8396632641821685e-23,3.6049100945774535e-24,-1.4569565938246822e-23,2.430851000940577e-23,5.210255314665102e-25,3.870778744158006e-23,-2.455614447783692e-23,4.11780536565051e-24,9.331284174877559e-24,-5.2386307346848466e-23,-1.4126120992352545e-24,1.4055918748890995e-23,4.318536814931822e-23,2.2489436307085666e-24,0.21606714974253413,-5.342044498193814e-24,1.522497493268465e-23,1.8861861059875605e-23,1.4840989856533282e-23,4.876133592339398e-23,3.86918834306722e-23,-1.421902345069949e-23,2.5079997338932297e-23,-5.655326167638415e-24,-3.376455368261309e-23,1.6755404304454494e-23,-1.5899741473862082e-25,3.521351639967555e-24,-3.314959565256249e-23,8.494158519835267e-25,0.18002891924402126,-5.717736600809448e-24,1.0104101595595066e-24,-1.225169186646829e-23,-4.527508544914664e-24,5.2790156182592414e-24,-2.5414404395637056e-24,8.91501304339175e-24,2.631451546858018e-23,4.704021017567975e-24,-2.985246067099898e-23,2.168020583306994e-23,-9.899736778148085e-24,-1.444400709241959e-23,-1.3612384494483524e-23,2.346279572396734e-24,-1.2195653228356388e-23,-1.5698067971310172e-24,1.628322385039975e-23,-7.325234034236773e-24,-7.104061774245064e-24,-1.6190538328296185e-24,0.014034316702630887,0.04352220865450326,-3.3876139171650595e-23,-5.4072406549846785e-24,1.7839243640171523e-23,5.96685925503737e-24,1.0169642330292394e-23,3.3509520216761494e-24,1.6457666183001297e-23,0.050355891786914526,1.0090834463413136e-23,0.1886975848008341,2.5170101733528105e-24,-1.7942608620905973e-24
-2.2153653952185415e-23,0.06963224355842504,-7.226073054883064e-23,-5.360079452892646e-23,0.03178299965025026,-1.2171273416660303e-22,0.055551286835068034,-2.7476078655946145e-23,2.5444767964457443e-23,0.06206869941284756,-8.805826740427752e-24,-1.001987500644962e-22,-4.1495525558663473e-23,1.2558111847542707e-23,-1.5062408962821518e-23,-5.575042916192613e-23,-4.305407258336759e-23,-8.05012964703781e-23,0.04773541397405791,-3.7350693010496554e-23,-8.171733631139688e-23,-5.436398338300184e-23,-1.8262159324035108e-23,-1.2005215601101236e-22,-3.429128253867406e-23,-4.0352031424032e-23,0.027290647173231087,-7.911603605707429e-23,-7.206862052386445e-24,5.26373599788982e-24,-9.725939289563305e-24,-8.958790261527183e-23,-7.621197589192515e-23,-4.428563151053368e-23,-2.5581930339046415e-23,-3.964893226578103e-23,-5.95680474359044e-23,-2.732413107419759e-23,-5.1511314755022107e-23,-4.465343362637108e-23,-5.79445451996265e-23,-2.5130483551805335e-23,-3.0796615404034767e-23,-2.843909187333487e-23,-2.138263241979374e-23,0.22899077988612826,-2.961524841689068e-23,-2.107885126517432e-23,-4.036495955070289e-23,-1.1084838034422631e-23,-5.949092646739857e-23,-6.458875472785635e-23,-3.16515849884159e-23,1.4703645896036725e-23,-1.8483661656861117e-23,-5.920113713951389e-23,-1.1292056490833e-24,-4.04010768258673e-23,-2.0404732112600444e-23,-1.245043621947148e-23,-4.966702333640179e-23,0.19796962876864654,-1.2047685300704173e-22,-4.022192644606554e-23,-1.4548799873764633e-24,-2.763382864591997e-23,-4.034787082459719e-23,-2.586542737278552e-23,-1.5296657446009788e-23,-4.9288893278742873e-23,-7.500683646725402e-23,-3.900595121789141e-23,-6.948918239236515e-23,-7.723025930101686e-24,-2.704739849138828e-23,-5.776426330504716e-23,-3.6163157646524713e-23,-1.1864489817461732e-22,1.941136646719791e-23,-3.7346672718512827e-23,-3.3075836392656063e-24,-1.948045053399397e-23,-6.59207965875694e-23,0.005555108055173086,0.04647559309166518,-2.606743475349333e-23,-6.326824871770456e-23,-1.9135445494161658e-23,-7.231916390166876e-23,-3.722992622248649e-23,-3.870117141726829e-23,-1.0334236561550371e-22,0.0419106696776598,-8.255302202214213e-23,0.1850369299168474,-8.867894600308541e-24,-5.2913800749231976e-23
-7.677273531662253e-23,0.0642739218044947,-3.662831964935395e-23,-4.332072995297159e-23,0.018547845171485732,-1.8261233249817664e-23,0.06091590520015275,5.848745124211161e-24,-7.673513985902574e-23,0.06389037719545056,1.1620530587803984e-23,5.0180871627739256e-24,-1.0160597735807382e-23,2.5762056305017074e-23,-5.09484994308036e-23,-1.3111647511760734e-23,1.1980164084441044e-23,-2.3833545001213033e-23,0.04637539499182627,-4.2906200802714994e-23,-3.033043064678544e-24,-4.2852071894471895e-24,-1.7682479917164806e-24,-7.587906595356451e-23,-1.5865599167603177e-23,-3.130169617393802e-23,0.025065301691010962,-1.1787086804866857e-23,1.8580539685229726e-23,-1.849664548977671e-24,-6.670559586951952e-24,-2.6028900065667443e-23,-3.9261369766879705e-23,1.9706706279814618e-24,-1.5426769007527023e-23,-8.88915292367489e-24,1.588758019947179e-23,-2.2258709944333354e-23,-8.058995670450325e-24,4.664715543601375e-24,-5.9001476826711586e-24,-1.11466543900731e-23,-2.5402053399681463e-23,-4.214076524996078e-23,4.130487659473283e-24,0.24179687430118663,5.413657547535127e-24,2.561257077557134e-23,2.801696218803535e-23,-7.575872799017882e-24,-1.013911628337744e-23,-2.411724921017631e-23,1.1367430822638913e-25,-2.0298307969046e-23,3.184819893351843e-24,-3.988275470683221e-23,-8.006735479340688e-24,-1.0994080999441011e-23,-3.970399856012339e-24,-7.51270228364936e-23,-1.3045458136069736e-23,0.21592968594053447,-6.63393618337486e-23,-2.7494533514530067e-23,-1.7592574664784508e-23,-6.19670525523058e-25,-1.2569239403181698e-23,1.5678047897519681e-24,-4.651259446539984e-24,-5.321622953846209e-24,-1.2902045789212391e-23,-5.876016665779463e-23,-2.4895911143233787e-23,-4.334865301663689e-24,-2.7557729486840593e-23,1.5442396860953126e-24,-1.2315420772050043e-23,-4.163490264558271e-23,1.3118940143326379e-23,-1.7571979987471957e-23,1.2596053014283045e-23,-1.6761506786142905e-24,1.0549558330425838e-23,-1.6651789703723285e-23,0.04938637471754448,-8.9762810655296e-24,-3.95778869510905e-23,-5.315095785646688e-24,-3.238252653395134e-23,1.7039661794615828e-23,-9.874033047287508e-25,-7.956018094929753e-24,0.0330339957390244,-6.573068753611899e-24,0.18078432324728896,2.0200078299470843e-23,7.830786811893389e-24
2.06239765918652e-23,0.057996225391193416,5.83762576338001e-24,4.4473896233859965e-23,0.004045772367119953,4.0410374275881284e-23,0.0662297821649089,5.28781857129266e-23,5.663320354091376e-23,0.0654485686916732,3.575845005687277e-23,1.0921470816205285e-22,2.908156929745481e-23,3.1921857602681643e-23,4.858320771196387e-23,9.833861094574108e-23,4.657838481094576e-23,5.223682034395197e-23,0.04479123623362532,8.261796692518791e-23,8.999844168349674e-23,1.0266881456134665e-22,2.8490522331261415e-23,1.3155207739653323e-22,4.019914276034455e-23,3.750967608364136e-23,0.02222120620959015,1.354379972136357e-22,2.1577961641452726e-23,2.066714342904133e-23,2.1780356088097778e-23,5.534050228609153e-23,1.0584250121134301e-22,6.422305072546889e-23,2.3526384325456347e-23,4.680563693484767e-23,1.024127163957893e-22,3.304687744612013e-23,5.495477102329396e-23,3.2692190909641036e-23,9.664808061542774e-23,3.003716565004136e-23,2.323143834680767e-23,4.4670105607429465e-23,5.531163086436877e-23,0.25437967828838404,3.7896668712769853e-23,3.418681963305341e-23,5.249702862738175e-23,2.2570933470340967e-23,2.9645665863793853e-23,6.552403388984081e-23,4.7460066776071655e-23,7.481700823046158e-25,5.2695962902308646e-23,4.6091586486865996e-23,5.476060977792567e-23,1.1100318122108754e-22,1.1947411029288687e-23,6.226348419762285e-23,1.143708639552122e-22,0.2339264991226089,5.531077227095695e-23,7.841045138976507e-23,2.797848497533581e-23,3.702511176392911e-23,5.816278367565611e-23,3.6804802561678914e-23,2.6876773588187927e-23,4.848597341447852e-23,1.0528045318204399e-22,8.77609631541796e-23,9.434400533523814e-23,8.24838485392095e-25,6.941336983110737e-23,1.0919892908446307e-22,4.4778855997311707e-23,1.0466360988951626e-22,1.2563524269182045e-23,4.9437120684828805e-23,3.090042095720514e-23,3.491453327249779e-23,5.530462505485112e-23,7.250334783583231e-24,0.05221622095400764,5.510360101071172e-23,5.773001115050906e-23,5.2700949176558825e-23,9.544747372410386e-23,2.3722513209406053e-23,4.74463872138403e-23,1.1867353302739554e-22,0.023337664111752296,8.608163969773233e-23,0.17540714646513622,1.9177092186635443e-23,5.198398120074273e-23
2.3485079805926137e-24,0.05087048823944875,5.685108900260311e-24,1.9391703885727402e-23,5.7313303009792446e-24,5.119473144155111e-24,0.07163842695118039,2.5541225911709967e-23,2.9224535107271194e-23,0.06676000098596271,6.778304153377391e-23,1.0596326847252999e-23,4.602600580510453e-23,4.139035623576981e-23,-2.2849050686207837e-23,2.508162306599105e-24,1.1361304449211764e-23,1.7066615734054068e-23,0.042820784864834316,3.3195862986277264e-24,1.1573172079948582e-23,4.3079647055343655e-23,-2.33567929049906e-23,1.0310781853602853e-24,5.478207934629053e-23,7.549550785374662e-24,0.018807775880861893,3.123359118150702e-24,8.292822992626507e-24,5.8782239782439195e-24,5.101973389378833e-24,3.556551059897596e-23,5.85149851227371e-23,-1.6984846290141763e-23,2.6117774731644697e-23,5.182279796275541e-25,7.986649236606209e-23,-4.2762168477045426e-24,1.2524672156139163e-23,1.6873780640832427e-23,-1.0750081724959525e-23,1.487932090882045e-23,2.3277216355288502e-23,1.303326951655572e-23,1.2881321863957015e-23,0.2666437736456397,1.9762512005420177e-23,4.196264938341661e-23,6.62656092907004e-23,2.0694526909777083e-23,-9.868122854778088e-24,2.7109788522996837e-23,-3.530746238124981e-24,3.163118550076895e-23,5.422120622537815e-24,1.898888747490104e-23,-3.7180992206004546e-23,-1.9636385928807562e-23,3.287271275937104e-23,2.0069428786599688e-23,-2.752207598533274e-23,0.25258981730047114,7.242493229356979e-24,-9.242243737710035e-24,9.635484338450873e-24,1.5443136767246944e-23,4.04370329423436e-24,8.604336352911616e-24,-2.909834994442789e-24,4.235433076760877e-23,-1.5071607948140647e-23,4.010918209691609e-23,-2.597863051448067e-23,3.60154440091603e-23,2.5145692077752807e-23,1.0345676043531956e-23,3.303668781519831e-23,6.391676436281401e-24,1.5241280045249782e-23,-3.4009282653443945e-24,5.2039961712868535e-24,2.4531634515585666e-23,1.6061820993615788e-26,2.799065602828632e-23,0.055122023445031594,-1.8140082098527846e-23,4.6322990647894344e-23,-1.8091418751336003e-23,1.1338111943605684e-23,8.928065056180388e-24,-3.055530290881111e-24,8.572185399353973e-24,0.006099993396137062,2.1696004784631745e-23,0.1686469152904323,2.0382066240308e-23,7.624735749781755e-24
-3.4924168836846884e-23,0.03945513922139113,-5.077788559866709e-23,-6.956703453236834e-23,-1.0616867871082306e-23,-4.1539140304539907e-23,0.07761295672560864,-2.35033690184774e-23,-2.2367989292656306e-23,0.06781870123265683,-3.951345042782165e-23,-8.295755775345771e-23,2.40467075263167e-23,-6.919385998422689e-23,-3.862849913585207e-23,-4.360327874635163e-23,-5.308956607515414e-23,1.1690441122164288e-23,0.0393732204339931,-4.560607868746179e-23,-6.792750310476768e-23,-6.038084083451622e-23,2.780470238767101e-24,-2.949957338094532e-23,3.1716017374721027e-24,-3.0474125872234864e-23,0.012677707809286645,-7.834852735149548e-23,-7.051441588382444e-24,-1.1456295220336352e-23,-2.2957918810787584e-23,-2.6037188323752538e-23,-5.538911173689222e-23,-2.0185418695335366e-24,1.3251786194947288e-23,3.7674912211770234e-23,-4.272041709217542e-23,-3.3765647448646165e-23,-2.6255115250280253e-23,-2.5941917500410287e-23,-6.609782228916024e-23,-1.633754029135717e-23,-6.642491605749097e-24,5.212906196196919e-23,-6.867622853821623e-24,0.2769412852077594,-1.8293882484995993e-23,6.42547532251737e-23,2.75655985268316e-23,-1.6069400608249206e-23,3.3476078835378497e-23,-6.823043883058515e-23,-2.0627422960119952e-23,-2.0439066352096393e-23,-1.2368937653994734e-23,-1.3110717376425095e-23,5.582777348785819e-24,-8.216490789018287e-23,6.844255037120126e-24,8.315707822526916e-23,-7.162576084583578e-23,0.27391146250303455,-4.61619915305912e-23,-4.0791085658142815e-23,-2.605631111559307e-23,-2.3098043242724495e-23,-2.9986107805657093e-23,-2.4705729044293926e-23,-6.3719996878387415e-24,-3.532675246398754e-23,-5.622905020445716e-23,1.4122064261882603e-23,-4.567059829210445e-23,-1.9607664533548763e-23,-4.6230762638008343e-23,-4.4470943683708716e-23,-5.2566900010031316e-23,-7.846807075635295e-23,2.532874225379151e-24,-9.154971722266591e-24,-2.341944695354216e-23,-3.758530606151031e-23,-3.66239674733583e-23,4.176416593815318e-24,0.05843894476261653,-6.016781319513311e-23,-4.839033187701833e-23,-3.767251214705138e-23,-6.659833350679761e-23,-1.298975433167591e-23,-1.2966810921226606e-23,-9.579567533439472e-25,-1.0146650364212148e-23,-3.022962819084493e-23,0.1537705821036531,-1.3013349506044383e-23,-1.8703988018542254e-23
-5.446084324385962e-23,0.026320542196482773,-5.17239731943571e-23,-1.2403484839496108e-23,-4.8743331855580265e-23,-1.734800372737506e-23,0.08381716183282716,-3.348359748918935e-23,-2.924390621443539e-23,0.0688091540664272,-5.481562606641184e-23,-6.892889755295939e-23,-2.8924166035573877e-23,1.8008566438723547e-23,-3.209242381242064e-23,-6.719254200037181e-23,-5.993754132883281e-23,-4.295608439025924e-23,0.03534946919881851,-6.088918870794555e-23,-6.214862888840267e-23,-5.988539825963792e-23,-2.004004305415359e-23,-6.586846148170901e-23,-2.3849011143151956e-23,-4.622074813736119e-23,0.005464247357291029,-2.5802706402808682e-23,-5.383291867370705e-23,-4.4931164740469385e-23,-4.476121484887189e-23,1.9790841798189673e-23,-5.2219350516104803e-23,-5.925323279514226e-23,-6.295591880589071e-23,1.8557656516135745e-23,-8.925952193174113e-23,-3.025937362580521e-23,-4.0213623499643256e-23,-3.1199649254012966e-23,-5.628483252235832e-23,-1.8130016770952422e-23,-2.8509154858327154e-23,1.1624745764349894e-23,-4.178692659243968e-23,0.2864388355063807,-4.3323155528991825e-23,2.315099961829228e-24,4.651777711755421e-23,-4.483461321601235e-23,-3.8485796211079566e-23,-2.7885204428653687e-23,-4.4971044290193056e-23,3.2872127674685444e-23,-4.52427119666196e-23,-8.801164356894113e-24,-5.0557653754330155e-23,-3.676953967379163e-23,-3.7497621165710945e-23,6.0989103965515475e-24,-5.315529831741586e-23,0.2962748769178365,-9.203212848944136e-23,-4.926780477352865e-24,-4.126243278325511e-23,-5.233902300776495e-23,-3.601836037737124e-23,-3.143298610493059e-23,-3.306259867349291e-23,-7.076900881764853e-23,-5.940817953156153e-23,-8.114764211572743e-23,-6.10258163054863e-23,-9.352092024444155e-24,-6.867381097228308e-23,-9.851789055149395e-24,-3.104991671715463e-23,-8.506086973119038e-23,-3.3935655573817015e-23,-4.518493683664376e-24,-5.643755280133208e-23,-3.461749377667913e-23,-3.9704834100033415e-23,-1.2136090462387673e-23,0.06192153319381822,-5.826286161575807e-23,-6.126153769803114e-23,-2.8801359935475445e-23,-7.031847153400792e-23,-5.044663454525846e-23,-4.801045449967658e-23,-2.6655116720936934e-23,-1.9215650160823863e-23,-5.400404889467842e-23,0.13560417973011785,-3.526880131530555e-23,-3.8505562684577955e-23
-3.392725006524555e-23,0.012891897690561935,-1.2442983543554772e-22,-1.2327729935747982e-22,-9.859191471514384e-23,7.172003361438818e-24,0.09001060508881786,-1.1940841866945064e-22,-9.572042276272064e-23,0.06969398354451838,-8.33026193899433e-23,-1.3867520982702115e-22,-9.256665326935652e-23,-1.6630710717042257e-22,-1.556891160320447e-22,-1.7804580374433133e-22,-1.5059704482382497e-22,-1.2884055293229587e-22,0.030337053797137716,-1.8185226407912758e-22,-2.2951107526482476e-22,-1.3285025128630753e-22,-6.046867570053035e-23,-1.3681056446846744e-22,-7.161670221835714e-23,-1.265193450337923e-22,-1.878692840214958e-23,-1.8565360641745251e-22,-1.0048689309698013e-22,-1.0965490490333084e-22,-1.0289524934977606e-22,-1.2076946607150426e-22,-1.7937509199701564e-22,-1.4773127188310488e-22,-1.033136638100219e-22,-1.0177350571034005e-22,-1.9406451902469574e-22,-1.3338007791082361e-22,-1.5002286735966968e-22,-1.2036598574899773e-22,-1.7330927802343103e-22,-9.957823590791244e-23,-5.748044103209148e-23,-3.794669986994897e-23,-1.083852111350805e-22,0.29596307426738583,-1.0913991626865514e-22,-8.123214486604279e-24,-6.096310075736337e-23,-1.1386451463321906e-22,-1.984402334019764e-22,-1.7753452706010027e-22,-1.4731658859278304e-22,-5.1811852338517784e-23,-9.593037640541623e-23,-7.720637336254078e-23,-1.3891692493879043e-22,-1.3890183847529764e-23,-6.505306174117016e-23,-1.2056829634460718e-22,-2.1556142566044166e-22,0.31870346439230457,-2.1808142140769796e-22,-1.3373757117480155e-22,-1.1907581501979388e-22,-1.494696517646718e-22,-1.7907783105666456e-22,-1.1920785882636173e-22,-9.049982292517489e-23,-1.20172662283402e-22,-2.291684270428581e-22,-1.5893155969405843e-22,-1.4873026610701444e-22,-1.069490807063569e-22,-1.5121830359504154e-22,-1.9916636159066087e-22,-1.11472738844029e-22,-2.106212727384575e-22,-9.338985183670377e-23,-8.504106982802594e-23,-8.9241503553642e-23,-1.2388659351557477e-22,-1.3440178135421374e-22,-7.838057754336557e-23,0.06537061266914235,-1.1064090396441297e-22,-1.4962720171670416e-22,-7.337948034305979e-23,-1.7826650747371582e-22,-1.0131287653734822e-22,-1.5178735383690719e-22,-2.124076350484733e-22,-8.894560206565705e-23,-1.3291892547342702e-22,0.11702930855013129,-9.613680787848039e-23,-1.0960576449950461e-22
3.0946742855018947e-23,2.588061167951394e-23,1.8325515414935278e-23,3.039231979593131e-23,4.821882772678157e-23,2.1641342107644496e-24,0.0962008190800673,1.1605334313262631e-23,9.545601475275809e-23,0.07014248973708571,3.627130345242697e-23,5.711718244200824e-23,1.814182523138342e-23,4.5735670379796166e-23,1.2891243458465873e-23,2.8412421095975066e-24,1.895401153946558e-23,4.007212182234753e-23,0.02181238625143471,3.3619581012411236e-23,4.6116224902358187e-23,1.0043500610578622e-23,6.61878394299814e-23,9.011212619842961e-23,2.62851865229278e-23,3.7572112889949367e-23,1.7015290817738478e-23,7.641252677874769e-23,5.626789747551957e-23,4.38702766946144e-23,4.549456354131828e-23,1.0063742261193655e-22,5.1955339464955694e-23,6.547958035241053e-23,2.6652869198632654e-23,6.52560628872848e-23,-4.388123388563218e-23,4.2335267961937844e-23,4.668321780207285e-23,3.9202425618233683e-23,-9.65883217435142e-24,3.697036364541914e-23,7.15538917587695e-24,2.0823575688334224e-23,3.416304182539647e-23,0.30509093221332484,3.9731219638453624e-23,-1.3512703884153195e-23,5.319709107848331e-23,4.278778371768433e-23,1.3728026315913286e-23,5.510905614124387e-23,3.404832439932694e-23,5.038608545367807e-24,1.1533841597974247e-23,8.946792670114897e-24,6.611796732686702e-23,4.206320465575804e-23,5.205001795732501e-23,8.34588398584517e-23,4.7638956362714454e-23,0.34151991123823844,9.913160189058314e-23,7.335539932562298e-24,1.005472306310543e-23,3.579111415953212e-23,4.3443439854410044e-23,3.45098723267265e-23,2.3845517256391576e-23,5.049698038008304e-23,9.132834494286056e-23,9.757914072597349e-23,7.192676057997676e-23,5.0327612598163085e-23,3.604467449706095e-23,1.614343983399534e-23,4.43188728766049e-23,6.899007678946199e-23,4.215590147522221e-23,4.0109686649882265e-23,6.174969874458872e-23,4.176937614025392e-23,2.200002003241275e-23,3.441082909287236e-23,0.0687160559796046,-9.537677699725039e-24,5.811253753568029e-23,2.8584941677406686e-23,3.3580620441490203e-23,5.419451751770686e-23,3.6598335320454476e-23,3.2733389554687375e-23,2.416456505934548e-23,4.110669766871311e-23,0.09651740550024433,4.04777827727683e-23,5.2018207102129295e-23
3.738961926712377e-23,8.488229526939398e-23,1.2002062958007584e-22,1.2558032124495995e-22,1.1869290081295651e-22,8.202198237933113e-23,0.1026602358159927,1.3462842459228224e-22,9.698009688973996e-23,0.06964867665510314,6.117582827316101e-23,1.7300368680027286e-22,8.604823052019708e-23,7.770762260285231e-23,1.0782352201025348e-22,2.01300243955801e-22,1.5332327604640175e-22,1.1883957456336972e-22,0.009533174556738746,1.8782624004498807e-22,1.9471829789703046e-22,1.1671490168668966e-22,8.611991259864724e-23,1.413213547283697e-22,6.209862637225738e-23,1.0971221082893695e-22,4.6476204928524763e-23,1.8058371325413514e-22,1.1063386273730845e-22,1.3128488547655093e-22,1.1900382003637233e-22,1.2851633168414384e-22,1.7709167110573678e-22,1.4649436295879267e-22,5.567569749865467e-23,1.626985921979587e-22,1.8095525104031333e-22,1.3554657541606723e-22,1.2498121638448057e-22,1.2835853307741487e-22,2.0074115438925817e-22,1.3789936113110573e-22,8.225367372528577e-23,1.0099232495230852e-22,1.305201219136832e-22,0.30996887964503844,1.4537199183012333e-22,8.77344450293133e-23,8.475758324441882e-23,1.4055199265512198e-22,2.818082838416326e-23,1.5128358443081325e-22,1.2693608037946105e-22,3.916307492718755e-23,1.5719501590406327e-22,7.047154550717521e-23,1.082533860414926e-22,5.627773769130307e-24,7.460812655563645e-23,7.150792315325581e-23,1.311595885016812e-22,0.3659687248840105,7.657226058761817e-23,6.795285805520423e-23,1.0061416489482404e-22,1.2829538653688897e-22,1.5664599344894032e-22,1.2075168437777304e-22,1.3712798389514966e-22,1.1047862930219098e-22,2.470100874948649e-22,1.3023388391949822e-22,1.9658052307818632e-22,1.2364914415095044e-22,1.5665211444815625e-22,1.9231638809799805e-22,1.2565940451507865e-22,1.6683950720191461e-22,9.892673128967528e-23,6.674794488749575e-23,1.3063669149829875e-22,1.3110421337900743e-22,1.2957502037101356e-22,9.254521364059579e-23,0.07207071375340476,9.988529537510865e-23,1.6612861582636996e-22,9.240503826901556e-23,1.54426434614384e-22,1.1061250295694118e-22,1.486127886475935e-22,1.6506929348100774e-22,9.826329421532202e-23,1.2157089242180238e-22,0.07014959468971167,1.0534363865018815e-22,1.0427464380797756e-22
-8.204853570799402e-23,-1.6899793167596567e-23,-5.0129567296244394e-23,-5.43476265961474e-23,-4.388886253015679e-24,-7.304808684745118e-23,0.1090661490678134,-5.376822886332037e-23,-6.82371455510306e-23,0.06841724011352747,-6.740264586234703e-23,-1.3122587737409693e-22,-1.1929338045875624e-22,-9.904546168131047e-23,-1.1991148941119884e-22,-8.59895639930706e-23,-4.951816128027638e-23,-1.0554109087411383e-22,-6.714839207178612e-23,-9.44584579477218e-23,-4.3873784363762795e-23,-1.427126138641269e-22,-1.948118233676903e-23,-1.251400701498704e-22,-7.996872665350031e-23,-7.312114347389896e-23,-3.6751958069255685e-23,-1.6893158814950998e-22,-1.480075477689187e-23,-1.2463621609312483e-23,-2.917866751030714e-23,-9.983532454773319e-23,-9.099747757591175e-23,-5.629854756387852e-23,-6.685930243710303e-23,-1.2228994901096157e-22,-1.083670692262338e-22,-9.090016286880493e-23,-8.152451575186852e-23,-6.468095816593367e-23,-6.301577971108705e-23,-5.2088430014442304e-23,-3.000383844385215e-23,-1.5513449536614106e-23,-5.200277662325205e-23,0.31428092244778044,-3.8089754561492475e-23,-2.904639662697521e-23,-7.987950760755179e-23,-5.649155446916605e-23,-1.2965145876385075e-22,-8.647463850183255e-23,-3.91607723772129e-23,-1.034627002739575e-22,-3.058177350376064e-23,-6.293341917130068e-23,-1.1102751558828908e-23,-1.3680959839042208e-22,-4.762441499921828e-23,-4.983712491835838e-23,-7.827670633506284e-23,0.3905919463135463,-3.837589917773448e-23,-2.9496879701754574e-23,-3.7700882885043343e-23,-2.5991620750683004e-23,-7.662766267340746e-23,-4.8175196899390103e-23,-1.385585129050214e-23,-6.047817705257533e-23,-7.435426482547876e-23,-2.1532328354343856e-22,-8.133941699226655e-23,-3.5629118969172884e-23,-3.676689784833871e-23,-8.94506987389509e-23,-9.423906362820643e-23,-1.4310909227514382e-22,-4.110991569119049e-23,-5.948814306645025e-23,-1.0759580728549608e-23,-4.051742904302375e-23,-9.605636919702991e-23,-4.3751779655392026e-23,0.0753605285382671,-7.64003858885564e-23,-1.1846175987895401e-22,-7.251574146210278e-23,-5.468303916970573e-23,-5.0272592733393524e-23,-4.677600186298572e-23,-1.114428004810347e-22,-2.8603154648963687e-23,-1.1326465906149138e-22,0.04228321351906498,-3.7401816122817005e-23,-9.300177760642592e-23
1.5966035646774055e-23,7.214567775805212e-24,-6.646667464105377e-23,-5.431056455419507e-23,-2.1963625308623147e-23,-1.1652994030058914e-22,0.11528631900017429,1.9505997608268424e-23,4.7249718900939147e-23,0.06462506136630349,-5.823473756878453e-23,-8.555639453275691e-23,-7.946593262243317e-23,-8.013055770262817e-23,-6.174106348427491e-23,-7.446452626537678e-23,-1.02246279740987e-22,-7.685320917506308e-23,-2.9080574004123496e-23,-2.4242109750157634e-23,-7.100131545329809e-23,-1.2180692418623926e-22,3.760564970307496e-23,-6.607260165182615e-23,-6.763250138111196e-23,-7.460458672182094e-23,-2.9602493695896416e-23,-6.654822444214113e-23,-1.4066707825447821e-23,-1.5169371688471938e-23,-1.7489759037703694e-23,-5.40487432090296e-23,-5.246665683842905e-23,-3.9879301438560285e-23,2.732036411724522e-23,-3.3139882063783934e-23,-9.509910643039323e-23,2.7343148787541093e-23,-3.9902464514030885e-23,-5.2058105929689486e-24,-4.315814466109592e-23,-2.655472950845635e-23,-4.29137219513439e-23,6.282948969486618e-23,-3.863239018976336e-23,0.31662836414011414,-3.991170065235398e-23,2.4646784957151273e-23,-3.6912476708830385e-23,-1.5117135468280835e-23,2.0542067697203597e-23,-5.621816210916132e-23,-2.7993615255853355e-23,-6.284189593044074e-23,-3.572578833028134e-23,-1.7227584782053733e-23,5.772179591915174e-23,-8.00738193534878e-24,-1.0965072112626804e-23,3.7381172941404175e-23,1.2189409558886351e-24,0.4158206438394149,-7.077288854391397e-23,4.191541082676334e-23,-9.60053397911198e-24,-2.6536336428745776e-23,-3.740850117472095e-23,5.5722823679546616e-24,-1.9926682317851145e-23,-5.090927808826995e-23,-6.010563556107328e-23,-8.50989218256455e-23,-3.416062014028435e-23,-5.058672204464794e-23,-3.733380967179532e-23,-4.3185779916149596e-23,-5.836574017101092e-23,-9.072683262815802e-23,-9.266727520964075e-24,-6.671664756428264e-24,-4.979764869471699e-23,-2.1332683911153735e-23,-1.2664480423131209e-23,1.0668700144319461e-23,0.07842523364643136,-4.923570425750634e-23,-3.948237457860768e-23,-5.063909053578169e-23,-6.724247834676421e-24,2.444863996389865e-23,-2.99399998019118e-23,2.884295757355058e-25,4.300592925324595e-24,-5.903056643384792e-23,0.009214378007561365,-1.1620293032518509e-23,-4.9219583680759573e-23
-5.462601855688901e-22,-4.825234509112755e-22,-1.0692534632865041e-21,-8.247656364995325e-22,-7.484467771529927e-22,-4.881022349209737e-22,0.12327921634880303,-6.827571460127102e-22,-7.397980653170766e-22,0.04934982682397407,-7.671996232241775e-22,-1.0501057622199563e-21,-8.815293163580005e-22,-8.999950009003622e-22,-8.913141533486837e-22,-1.0042940660552802e-21,-9.732223127692931e-22,-9.849618306521748e-22,-5.555345266753399e-22,-1.0789430384819788e-21,-1.092284762753797e-21,-9.367106927511927e-22,-6.086953849298678e-22,-9.178581475422074e-22,-8.324690493362336e-22,-9.059545087133904e-22,-7.058498870455939e-22,-1.2396084184678609e-21,-7.71765115197741e-22,-8.267683218211368e-22,-7.4903048427810015e-22,-1.048686944975736e-21,-9.407669484110324e-22,-8.631952072942012e-22,-6.590869209072295e-22,-7.841115284762163e-22,-1.2310576259269798e-21,-8.818639325294823e-22,-9.256901642923967e-22,-7.84604368081832e-22,-1.143079053046826e-21,-7.450567026577206e-22,-7.618016171618066e-22,-4.101031810405524e-22,-8.53190163738456e-22,0.29639798916873533,-8.690795310916316e-22,-3.0180326322755625e-22,-7.431294612567304e-22,-8.361661406318605e-22,-7.638926022976341e-22,-9.466756872685902e-22,-8.72423102458408e-22,-8.023928573959933e-22,-7.502848472210228e-22,-6.888834196004219e-22,-5.414164081876606e-22,-4.593019174333103e-22,-6.662902520624042e-22,-4.797372862997086e-22,-1.1480617078188608e-21,0.451386242295011,-1.0135162308475899e-21,-5.859594665152739e-22,-7.553836778960222e-22,-9.163729055843398e-22,-9.3706918864207e-22,-7.677651159454138e-22,-7.695275867858392e-22,-9.58772996047219e-22,-1.1026449685481899e-21,-6.785969803125358e-22,-8.930353515781936e-22,-7.481335128084615e-22,-8.700453405360121e-22,-1.0359601525830055e-21,-8.593367530829269e-22,-1.3185534319445495e-21,-7.516209139916654e-22,-7.354568254954458e-22,-8.62352039626543e-22,-8.901096832572404e-22,-1.013564286972037e-21,-6.937991001309072e-22,0.07958672536347736,-8.976182075389205e-22,-8.598414145827201e-22,-7.2879774200194985e-22,-1.1491448040056198e-21,-8.526783061262257e-22,-9.184349800403488e-22,-9.420971710412441e-22,-7.474869315710114e-22,-1.1115234818643581e-21,-6.012586934840524e-22,-7.627895873730182e-22,-9.513352276460306e-22
-7.261967131039583e-22,-6.42332309330466e-22,-1.0701758548127374e-21,-1.0448852677955199e-21,-9.824109618322943e-22,-5.055308778698547e-22,0.1319568737895522,-8.56168388228564e-22,-8.789325839169734e-22,0.029638976139018412,-9.944869133482277e-22,-1.3542032636154284e-21,-1.0883206694176915e-21,-1.0818401308220043e-21,-1.0431946452846804e-21,-1.2873538032334683e-21,-1.273813316150486e-21,-1.1819252146665058e-21,-7.397103361451108e-22,-1.3835732696892013e-21,-1.3800095119595977e-21,-1.2704007438598871e-21,-8.194824424735767e-22,-1.2458927035819457e-21,-9.908696559964784e-22,-1.1682535665897371e-21,-9.15909005883374e-22,-1.5687374150441912e-21,-1.0762319566221538e-21,-1.1117078783597985e-21,-9.680575891098744e-22,-1.307407856053049e-21,-1.1960102258822623e-21,-1.1074790821183224e-21,-8.214114314849689e-22,-9.896630831346625e-22,-1.5357721328826663e-21,-1.1151154056014117e-21,-1.2158520801226748e-21,-1.002727099303249e-21,-1.4213277843382957e-21,-1.0096418785992331e-21,-9.306251423820799e-22,-5.388969836900999e-22,-1.1604378393735064e-21,0.26744637049308884,-1.0840654440432635e-21,-3.2542639383619637e-22,-9.527576006931072e-22,-1.0279094825225506e-21,-9.702369642119354e-22,-1.3008893541302697e-21,-1.1736992174718746e-21,-9.677322750382756e-22,-9.039472356725841e-22,-8.881637470607397e-22,-7.78346017867016e-22,-4.192317271794523e-22,-8.393336292466468e-22,-6.135231089485352e-22,-1.4796402014826109e-21,0.49094472604584294,-1.1633858548050276e-21,-7.491131782741675e-22,-9.94659909164236e-22,-1.1550676730999493e-21,-1.1866761546747705e-21,-1.0557177886001704e-21,-9.969789731546178e-22,-1.2638415438264725e-21,-1.2116904053069368e-21,-1.0631777859183765e-21,-1.1157433744053602e-21,-1.0144427173261302e-21,-1.0036182201490062e-21,-1.4096159625852614e-21,-1.1401076192562792e-21,-1.6324018965941308e-21,-1.0179017836979763e-21,-9.328695299025747e-22,-1.0331128540677638e-21,-1.2056357719867473e-21,-1.3485236878277833e-21,-8.580660150762672e-22,0.08001305353249805,-1.1962690807152233e-21,-1.0515664731674695e-21,-9.266493404272923e-22,-1.481962196744531e-21,-1.0562504975687367e-21,-1.2672449225718447e-21,-1.215995605685312e-21,-9.878664782582163e-22,-1.258706767373124e-21,-8.098822484480629e-22,-1.0333856513023194e-21,-1.2009780003956938e-21
-1.3176705570248567e-21,-1.1999687849770133e-21,-1.831058697954881e-21,-1.7658586594317505e-21,-1.720285139898668e-21,-9.357511086149717e-22,0.14063453123030145,-1.5518796801679346e-21,-1.652633973108655e-21,0.009928125454062757,-1.5765260973106e-21,-2.2737146292616605e-21,-1.8556204804543483e-21,-1.7269808518679967e-21,-1.793505896469062e-21,-2.17583845629735e-21,-2.1401092984378457e-21,-1.995496467082151e-21,-1.2802973103267166e-21,-2.381891168014974e-21,-2.4367898099297653e-21,-1.9934982188812715e-21,-1.3879006344582374e-21,-2.0449067723581854e-21,-1.7830326844887775e-21,-1.9836217902214373e-21,-1.4137075076295474e-21,-2.546787930424202e-21,-1.772243670077955e-21,-1.899855675866656e-21,-1.6844806419277141e-21,-2.147444402594958e-21,-1.9276630477480748e-21,-1.9775500485296697e-21,-1.3347744710582042e-21,-1.6365068577342022e-21,-2.4235410442381573e-21,-1.8421980657822284e-21,-2.0136647699959062e-21,-1.736585784839813e-21,-2.5013964287490637e-21,-1.7273620373706605e-21,-1.5443135180723634e-21,-7.997870356872904e-22,-1.955882001347994e-21,0.23849475181744187,-1.799113476311524e-21,-8.467109839248632e-22,-1.5584828172762537e-21,-1.7445494008823035e-21,-1.5383339646381321e-21,-2.1670888330046597e-21,-1.9971993906585382e-21,-1.5484692720186215e-21,-1.578372925780786e-21,-1.5706172418372136e-21,-1.400257072371555e-21,-8.308383758106853e-22,-1.4874792695029794e-21,-1.1771959131005454e-21,-2.4393434806726476e-21,0.5305032097966751,-1.960760275795335e-21,-1.2520329998008712e-21,-1.7426443334738905e-21,-1.9563706289787176e-21,-2.0330485333989102e-21,-1.826749189668732e-21,-1.7167676249611353e-21,-2.0775822950007554e-21,-2.295578800588728e-21,-1.6346086253494727e-21,-1.9676349461858243e-21,-1.7497704992660445e-21,-1.7758635426515167e-21,-2.2459220389326243e-21,-1.9742170027120846e-21,-2.700373804187404e-21,-1.7566464866351632e-21,-1.6252497453170024e-21,-1.8645075644854067e-21,-2.0202353475852675e-21,-2.1815838351392714e-21,-1.4665439864031079e-21,0.08043938170151876,-2.036188951931259e-21,-1.9142964808411926e-21,-1.570444206837005e-21,-2.3834189108278604e-21,-1.7349588967557633e-21,-2.1221948970871017e-21,-2.0385140741638517e-21,-1.7400653239640647e-21,-2.0579393923188043e-21,-1.3350839147398302e-21,-1.7458386721775293e-21,-1.9808153081706187e-21
-4.9875312488160765e-21,-4.837170012079642e-21,-7.178852151634153e-21,-6.511251588752209e-21,-6.6890032049285685e-21,-4.657018976951047e-21,0.14870008764449194,-6.505228568071372e-21,-6.039587685155782e-21,-2.605177318403369e-21,-6.1881083145516925e-21,-8.709081587485409e-21,-6.991237344204424e-21,-7.002495533194892e-21,-7.169540230334329e-21,-8.536552151615522e-21,-8.255979065616143e-21,-7.884392953547728e-21,-5.13344180778473e-21,-8.7749908121842e-21,-9.24447479944603e-21,-7.414435743888385e-21,-5.4849713831570925e-21,-7.56687898844959e-21,-6.884513956929458e-21,-7.621892119325278e-21,-5.549910557556907e-21,-9.836098386657264e-21,-6.962118877092229e-21,-7.202683732765074e-21,-6.815663751638831e-21,-8.352830827827193e-21,-7.633765207814559e-21,-7.579636346379755e-21,-5.565393257918281e-21,-6.553571814123531e-21,-9.362506264433749e-21,-7.097405615754975e-21,-7.792423456113648e-21,-6.976036048967565e-21,-8.948631138004557e-21,-6.857455451050492e-21,-6.112141012485049e-21,-3.799945943386522e-21,-7.556340396971706e-21,0.20391563635146695,-7.056848391437214e-21,-3.677052656631716e-21,-6.229317373057715e-21,-7.058156477927846e-21,-5.9215232085331986e-21,-8.45274152683187e-21,-7.711399902299602e-21,-6.073007687869758e-21,-6.3554944017495746e-21,-6.110669769665131e-21,-5.191662618974116e-21,-4.35505546626949e-21,-6.088543970474132e-21,-4.729054221581791e-21,-9.323573453222904e-21,0.5682552479188018,-8.122026063330317e-21,-5.6438662978135724e-21,-7.077725485765482e-21,-7.897028135018171e-21,-8.014271662067929e-21,-7.101387571971137e-21,-6.833140561836776e-21,-7.80101574235604e-21,-8.583227127296398e-21,-6.860289438807531e-21,-7.620752341337763e-21,-6.977381719035045e-21,-6.98681925326991e-21,-8.493163770195518e-21,-7.65496772227924e-21,-1.019662429230131e-20,-6.719560226905307e-21,-6.0426691838889874e-21,-7.322096630903367e-21,-7.635377958155333e-21,-8.090010343714681e-21,-5.651497897067545e-21,0.07912902808523972,-7.786218270168812e-21,-7.472754962591425e-21,-6.390350879101887e-21,-9.02686237354347e-21,-6.663825861852524e-21,-8.188974384438847e-21,-7.61509674088192e-21,-6.626023125319585e-21,-8.062641198388869e-21,-5.309807336703738e-21,-6.753349263582518e-21,-7.767040359378075e-21
-6.493472841229278e-21,-6.230611506176656e-21,-9.355432603621073e-21,-8.66196228476568e-21,-8.650486816981118e-21,-6.071360127365212e-21,0.15614444540096584,-8.484805362007692e-21,-7.699249841985485e-21,-3.2293119166032234e-21,-7.921470439615488e-21,-1.1313716193054598e-20,-9.132170194889089e-21,-9.165725354522462e-21,-9.423626561095977e-21,-1.1181335529885436e-20,-1.0627436257583128e-20,-1.0183623018924377e-20,-6.4445147585406596e-21,-1.156996562423975e-20,-1.2030083749027044e-20,-9.627505160424505e-21,-7.046119973623346e-21,-9.877387439751292e-21,-9.008172889039038e-21,-9.842912674343039e-21,-7.143410232944641e-21,-1.2829118247969526e-20,-9.04940302462655e-21,-9.328663809596607e-21,-8.766026456195292e-21,-1.0795643907594582e-20,-9.972225116959709e-21,-9.965093465404168e-21,-7.312233613692435e-21,-8.321816388626304e-21,-1.2128034006359502e-20,-9.332584443020048e-21,-1.0173451286717428e-20,-8.894078942105664e-21,-1.1729983692281117e-20,-8.913145986286172e-21,-7.814527345506518e-21,-4.969104589272e-21,-9.815013209237171e-21,0.16362538285308728,-9.199348623913354e-21,-4.777378109332463e-21,-7.975554227313105e-21,-9.12136851903887e-21,-7.60954074483894e-21,-1.0956222342536238e-20,-9.995408827238163e-21,-7.627127671612955e-21,-8.379479077569802e-21,-7.805328206195851e-21,-6.790162432510216e-21,-5.592632802444614e-21,-7.870444646934836e-21,-5.946417561835732e-21,-1.2159560576648511e-20,0.6041739912887572,-1.0493267270604872e-20,-7.298660511241608e-21,-9.157040459904799e-21,-1.0235282819533638e-20,-1.0549057349057694e-20,-9.286573448851388e-21,-8.874162265000036e-21,-1.002190721724717e-20,-1.0949327471032666e-20,-8.904477488438247e-21,-9.915213084336533e-21,-8.937625688190556e-21,-9.146133821723102e-21,-1.1041682397227567e-20,-9.862681086224821e-21,-1.3278599741990761e-20,-8.695877036658678e-21,-7.89068999615735e-21,-9.525152703020911e-21,-9.93088698005269e-21,-1.0581810707804595e-20,-7.350967669795836e-21,0.07605618045719002,-1.0119844617625988e-20,-9.710489276951615e-21,-8.281115212181697e-21,-1.17621501704634e-20,-8.714002966254036e-21,-1.0699828930578729e-20,-9.861494275709188e-21,-8.588855141902683e-21,-1.0399052159020893e-20,-6.875734846164042e-21,-8.751590971372656e-21,-1.0012133770360253e-20
-7.208692987847767e-21,-7.021388796297665e-21,-1.0369969722341683e-20,-9.730425705803106e-21,-9.705735139702427e-21,-6.648784968587797e-21,0.16358880315743984,-9.525354605609412e-21,-8.679526850192653e-21,-3.6532985956047036e-21,-8.839712210462424e-21,-1.2644494189873104e-20,-1.0039277498238664e-20,-1.020549192501925e-20,-1.042633442990553e-20,-1.2438372343076e-20,-1.1854863587544842e-20,-1.1380285558400465e-20,-7.14955236454707e-21,-1.2913821109590597e-20,-1.3388623897237001e-20,-1.0757640619570006e-20,-7.941729509125948e-21,-1.0698299859841768e-20,-9.987658396294707e-21,-1.0923483200344748e-20,-7.951305158385346e-21,-1.4415132740902772e-20,-1.01085427190114e-20,-1.0436282412169121e-20,-9.777900578997001e-21,-1.2126964428117866e-20,-1.1010295069664407e-20,-1.114585757805123e-20,-8.146070031183733e-21,-9.393860555389667e-21,-1.3513772698814452e-20,-1.0417916266021824e-20,-1.1350512247004008e-20,-1.0011589980681633e-20,-1.2981747172564493e-20,-9.96677516726635e-21,-8.716993252649252e-21,-5.5136183003308484e-21,-1.0961902185131433e-20,0.123335129354707,-1.023979892830917e-20,-5.3295798578112795e-21,-9.039194875789898e-21,-1.0177470177795602e-20,-8.526376333133736e-21,-1.2280321576690588e-20,-1.1195472749703163e-20,-8.541966484510181e-21,-9.321800759460052e-21,-8.65607772317599e-21,-7.689608933961184e-21,-6.445000826847762e-21,-8.789812968593362e-21,-6.670252889634101e-21,-1.3648927358323274e-20,0.6400927346587124,-1.1766141714593612e-20,-7.994084957923749e-21,-1.0206637336065273e-20,-1.1422375258770499e-20,-1.1699073342463158e-20,-1.0398389893379754e-20,-9.914661584725856e-21,-1.1174472516825344e-20,-1.2326842062936469e-20,-1.0024737988892255e-20,-1.0973139200330996e-20,-1.001394081827597e-20,-1.0231695825462337e-20,-1.240862926625285e-20,-1.1038851911544561e-20,-1.4656606769122684e-20,-9.714814661987928e-21,-8.80750874175413e-21,-1.0550475981486595e-20,-1.1110157958521327e-20,-1.1661658853069187e-20,-8.177049910511624e-21,0.07298333282914046,-1.1173037289770529e-20,-1.0868674451496689e-20,-9.300952532091453e-21,-1.3199167839594413e-20,-9.79157165257349e-21,-1.1938929643714668e-20,-1.087921967113181e-20,-9.56491911607347e-21,-1.1772038566611553e-20,-7.717997299138285e-21,-9.852147019455874e-21,-1.1255963741551543e-20
-7.612934527522808e-21,-7.272798768689798e-21,-1.0650036519827978e-20,-1.0002307869054911e-20,-1.0026513151888348e-20,-6.987544776385139e-21,0.17103316091391343,-9.808984916524949e-21,-9.002940477896878e-21,-3.936633840346302e-21,-9.2978737404084e-21,-1.3164457827088145e-20,-1.0546483415584296e-20,-1.0589228255321874e-20,-1.0870542448038539e-20,-1.2883295302248232e-20,-1.233533601372272e-20,-1.1855023746030125e-20,-7.507699929774831e-21,-1.3459852828622939e-20,-1.3958407343426715e-20,-1.1154963585355546e-20,-8.198988411296062e-21,-1.1247647562443828e-20,-1.0374863343658853e-20,-1.140023354396561e-20,-8.275822031756001e-21,-1.4801984698600507e-20,-1.0459308206250112e-20,-1.0821328238508904e-20,-1.0184855757316343e-20,-1.2556968308052811e-20,-1.147842771990388e-20,-1.1495333738306065e-20,-8.51209632749536e-21,-9.778810507420726e-21,-1.417305318926429e-20,-1.0791245285747209e-20,-1.1795177701614304e-20,-1.0378136247534537e-20,-1.354539351071663e-20,-1.0270596601919289e-20,-9.135170569853858e-21,-5.632322181553449e-21,-1.143035635520644e-20,0.08304487585632866,-1.0652088362129423e-20,-5.5551956462418675e-21,-9.260324971160446e-21,-1.056493887330923e-20,-8.848566514093471e-21,-1.2673175426785669e-20,-1.1586307060118272e-20,-9.041057979027553e-21,-9.620210989914638e-21,-9.16478335126085e-21,-7.778493856400351e-21,-6.575083269420314e-21,-9.079858309825444e-21,-6.959781123002524e-21,-1.4118812641296957e-20,0.6760114780286669,-1.2185642209025404e-20,-8.340994272127383e-21,-1.056362726652681e-20,-1.181665323097752e-20,-1.2093969855082544e-20,-1.0723097572777683e-20,-1.023318518444829e-20,-1.1669892854860075e-20,-1.2683458872592938e-20,-1.0306156896484593e-20,-1.1469192926274316e-20,-1.0385406514918026e-20,-1.0509817736232958e-20,-1.2889038769778788e-20,-1.14899307715905e-20,-1.537305883620764e-20,-1.0066950372811661e-20,-9.093951180721244e-21,-1.107249798350226e-20,-1.150808023653049e-20,-1.2255736890070798e-20,-8.577819455074836e-21,0.06991048520109105,-1.171196500918864e-20,-1.1296951893859162e-20,-9.593953441654489e-21,-1.3567231524081682e-20,-1.0116855818948483e-20,-1.232781214747694e-20,-1.1413376097203072e-20,-9.866452293270469e-21,-1.205027520556514e-20,-8.010187737247424e-21,-1.0247299436580762e-20,-1.1652432243970123e-20
-8.43843841792277e-21,-8.209650174997997e-21,-1.2241276456585262e-20,-1.139886564742165e-20,-1.1310964606281104e-20,-7.952084555967236e-21,0.17847751867038783,-1.1002427842489817e-20,-1.0160459354784816e-20,-4.320897135132381e-21,-1.0439493920775489e-20,-1.4919510208122356e-20,-1.18986380755544e-20,-1.2038483021467007e-20,-1.2298898284407415e-20,-1.4549536310955375e-20,-1.3910987696807073e-20,-1.3379756668169325e-20,-8.451523880704875e-21,-1.5096085754075003e-20,-1.5710857394410826e-20,-1.257953665264031e-20,-9.184121900016387e-21,-1.284344484380692e-20,-1.177125240597721e-20,-1.2886761952334391e-20,-9.316218965570059e-21,-1.667575061358122e-20,-1.1796883250445828e-20,-1.2231452290280873e-20,-1.1485884551954682e-20,-1.425423322103446e-20,-1.3002192741611937e-20,-1.3009976536441304e-20,-9.71124415555328e-21,-1.0932287399524704e-20,-1.5919718749633497e-20,-1.2237150456537174e-20,-1.3207967527130941e-20,-1.1842035823680279e-20,-1.5238229922166398e-20,-1.1655327434982803e-20,-1.0263279406630358e-20,-6.495204497979454e-21,-1.2836395265389262e-20,0.042754622357948975,-1.1907937330657011e-20,-6.333161049014284e-21,-1.0518654457682846e-20,-1.1923081714978325e-20,-9.972228873318124e-21,-1.4406373907338538e-20,-1.3015947280517895e-20,-9.969182568011832e-21,-1.0894411213508734e-20,-1.0433121544340653e-20,-8.928699755397669e-21,-7.453124392418524e-21,-1.0234166754458415e-20,-7.897111340417972e-21,-1.602536100851058e-20,0.7119302213986215,-1.3753157372424724e-20,-9.502231045136816e-21,-1.1979666343502609e-20,-1.3312924161702443e-20,-1.366256669272219e-20,-1.2109993586796428e-20,-1.1577932224962127e-20,-1.3159329402160701e-20,-1.436808220368119e-20,-1.1704995127761211e-20,-1.2954373178012089e-20,-1.1745609033460645e-20,-1.2026569559569635e-20,-1.4511334115647156e-20,-1.3041616813437015e-20,-1.7338844484369562e-20,-1.1327910323861826e-20,-1.0353523210486408e-20,-1.239732631884769e-20,-1.2949396655992643e-20,-1.3772530136838734e-20,-9.741115451017647e-21,0.06683763757304158,-1.3241688254518128e-20,-1.2634906779954857e-20,-1.0810275104567676e-20,-1.5352143004938577e-20,-1.1448978033566194e-20,-1.3943894959407658e-20,-1.2848755249971906e-20,-1.1176945910074978e-20,-1.366134992117077e-20,-9.015612181408562e-21,-1.1494619583416037e-20,-1.3080555717069934e-20
-8.832101212853333e-21,-8.565171356253589e-21,-1.2900947517394087e-20,-1.1918876652036265e-20,-1.1920722882180106e-20,-8.429360735852546e-21,0.18592187642686137,-1.1584664682627089e-20,-1.0660812742538748e-20,-4.45900171127681e-21,-1.102177474370462e-20,-1.5504274089622147e-20,-1.253507559221297e-20,-1.2632600795956211e-20,-1.3046055228633195e-20,-1.529905479495557e-20,-1.463145547438164e-20,-1.404623106673222e-20,-8.828558387646457e-21,-1.5896564089404396e-20,-1.654089651865615e-20,-1.3290052069132314e-20,-9.694321211696639e-21,-1.360357363926445e-20,-1.2421994657411857e-20,-1.3574942126621325e-20,-9.83448031668228e-21,-1.7678960388485708e-20,-1.2406337577942226e-20,-1.2773193426404154e-20,-1.202730360366454e-20,-1.4953905829383964e-20,-1.3623247368609122e-20,-1.3713155600206598e-20,-1.0069008905491747e-20,-1.1619178180366232e-20,-1.66833035990989e-20,-1.292205292288412e-20,-1.3988105472878333e-20,-1.2339114703261964e-20,-1.6084954480322843e-20,-1.2246169366054072e-20,-1.0829598311556329e-20,-6.7380862036922245e-21,-1.3559904563878036e-20,0.0024643688595707186,-1.2549982601237458e-20,-6.6773286615371675e-21,-1.1140482676886608e-20,-1.2541814433932023e-20,-1.0564631166378843e-20,-1.5127350265757373e-20,-1.3809487388646973e-20,-1.0571270349327587e-20,-1.141256287903411e-20,-1.0885631265392119e-20,-9.23549114249596e-21,-7.65879150909824e-21,-1.0760394273405591e-20,-8.25634017345013e-21,-1.6868373914478202e-20,0.7478489647685757,-1.4531481118492737e-20,-1.0180838517915689e-20,-1.2599826421461757e-20,-1.4000737485198698e-20,-1.4393338427177818e-20,-1.2727487884502806e-20,-1.2175812313717298e-20,-1.3835826853209597e-20,-1.511497433563343e-20,-1.2234873770240902e-20,-1.3484955577800647e-20,-1.2419696544913843e-20,-1.2609134241572342e-20,-1.5276599590475428e-20,-1.3682533859440246e-20,-1.8282793273400674e-20,-1.1911491513685985e-20,-1.0848237367239927e-20,-1.3085220521688759e-20,-1.3601182984162442e-20,-1.4553306693789288e-20,-1.0187836115823111e-20,0.06376478994499236,-1.3887830231684416e-20,-1.3230854918869466e-20,-1.1441694676268578e-20,-1.6269816557032158e-20,-1.198036873401135e-20,-1.4671950603907677e-20,-1.3448750381260893e-20,-1.1777221053508034e-20,-1.4338984670077798e-20,-9.433694758415255e-21,-1.2059169446166982e-20,-1.3780020203254346e-20
-9.386989827271544e-14,-1.0951893795305982e-13,-1.1636987417250048e-13,-1.0732955284289198e-13,-1.2827559649846714e-13,-7.516055964540837e-14,0.12126618635615996,-1.2857292862479571e-13,-1.0213178410498572e-13,-5.567156318241229e-14,-1.0670381537375966e-13,-1.3282030848237206e-13,-1.1729667362196195e-13,-1.158054079296836e-13,-1.2052686326884045e-13,-1.5458070261440321e-13,-1.3346534435917023e-13,-1.2552220601348079e-13,-9.372479448818667e-14,-1.4600466276114456e-13,-1.503150300266676e-13,-1.2297592099683036e-13,-1.0941277498431711e-13,-1.207897115972424e-13,-1.208674049114093e-13,-1.2744493673406885e-13,-1.0001722983680719e-13,-1.5252544856358446e-13,-1.3158487118497043e-13,-1.3559571877966188e-13,-1.2495994209475835e-13,-1.3172340022890296e-13,-1.2617657097924086e-13,-1.4015676695999815e-13,-1.0105334486547403e-13,-1.1097359214203615e-13,-1.3941531299114692e-13,-1.246459268973467e-13,-1.3221364247018497e-13,-1.2324848091234515e-13,-1.3583724524030419e-13,-1.3364396366985643e-13,-1.0872867840272753e-13,-6.882429430754271e-14,-1.3647758801624154e-13,-8.46488919310145e-14,-1.306492956699523e-13,-6.319753706225239e-14,-1.0950352051670724e-13,-1.2585829944834551e-13,-1.0094938584122089e-13,-1.3903107885502302e-13,-1.3856953733184406e-13,-1.0302211913242069e-13,-1.3168857310394391e-13,-1.0395484371726128e-13,-9.652600478070924e-14,-6.832345233079567e-14,-1.1749959047640104e-13,-8.717811311925188e-14,-1.4725187418711903e-13,0.8787338136554047,-1.1692497808719144e-13,-1.0516468893627252e-13,-1.292688382888771e-13,-1.4020440076369517e-13,-1.4779009389005118e-13,-1.3340725522105857e-13,-1.2779707401884691e-13,-1.2765211982301075e-13,-1.3016073200142991e-13,-1.073025242863883e-13,-1.4108098198528198e-13,-1.2148556436860705e-13,-1.2133996899077272e-13,-1.3817052560218618e-13,-1.277222037833309e-13,-1.5289117738983146e-13,-1.2834166078344108e-13,-1.1071845152336263e-13,-1.3094443245337106e-13,-1.3640612598028133e-13,-1.3554865853642293e-13,-1.1016415995341865e-13,-3.747364899563666e-14,-1.2919795938998096e-13,-1.182906839827209e-13,-1.2120228637170953e-13,-1.4540121585199763e-13,-1.1775209823290308e-13,-1.4560705748133139e-13,-1.1777716279340467e-13,-1.278677576055435e-13,-1.3177190742198047e-13,-1.1043855688647535e-13,-1.2818795293681077e-13,-1.3159882263485e-13
